-0.0987167,-0.4613180,-0.9048155,-0.3153887, 0.8530634,-0.2801206, 0.4285468,-0.7702283,-0.5387637, 0.9770663, 0.1261039,-0.9071245,-0.4384045,-0.5747553,-0.7289141, 0.3708356,-0.7994206, 0.6407289, 0.2540080, 0.6257827, 0.2862436, 0.2619391,-0.3312740,-0.6743473, 0.7094431,-0.0356964, 0.2199534, 0.8655009,-0.9288629,-0.5254154,-0.2000716,-0.5855049, 0.1616545,-0.5433669, 0.8102874, 0.4196134,-0.4341714,-0.9387578, 0.4518000, 0.1669723, 0.2403056, 0.5883749, 0.8904624,-0.2064197,-0.9437323, 0.3876684, 0.2679592,-0.7503758, 0.0642368, 0.9583151, 0.8844406, 0.2418954, 0.5302860,-0.5601289, 0.3910863,-0.7122235,-0.0242092, 0.1091912, 0.1328319, 0.9075020,-0.7391198, 0.6737491,-0.5695808, 0.4941626,-0.9607534, 0.7512572,-0.4600200, 0.8115462, 0.7912954, 0.2201984, 0.0081612, 0.9290628,-0.2345670, 0.9038999,-0.9494562,-0.5591481, 0.1257862,-0.8214069, 0.6384442, 0.3909743, 0.7467088,-0.3600907, 0.3006345, 0.2238529, 0.6336378, 0.0322917,-0.3313318, 0.0617943, 0.7135768,-0.1367277, 0.2415891, 0.3549227,-0.6449863,-0.0795937, 0.2623245,-0.3381530,-0.7151556, 0.2690056,-0.1515025, 0.3944372, 0.7613972,-0.5430107,-1.0567638, 0.6947017,-0.6313623,-0.5424720, 0.6055180,-0.2102582,-0.4322030,-0.1036507,-0.2790375,-0.1891923, 0.1258981,-0.6687765, 0.2457723,-0.8352544,-0.7493177, 0.3054393,-0.4050615,-0.2525325,-0.7659343, 0.2814546,-0.1822456,-1.1072503,-1.0266641,-0.2190316,-0.1210153, 0.1843326,-0.2711982,-0.4564819,-0.2087854, 0.5851473,-0.0664027, 0.8775428,-0.5074455, 0.9933978, 0.0901380, 0.8037995, 0.3229716, 0.7291283, 0.6310178,-0.8012362,-0.0265229,-0.8300895, 0.3537355, 0.2969351,-0.8060699,-0.2829216,-0.4964012,-0.8571595, 0.4990509, 0.6926509,-0.8361984, 0.4892853,-0.2647280, 0.5790176,-0.3669689, 0.2220022,-0.1154653,-0.4758301,-0.3401252, 1.3460749, 0.9546518,-0.0252024, 0.7300308,-0.4932758, 0.6498933,-0.6782677, 0.2034208,-0.4333125, 0.1668397, 0.5615223, 0.3630632,-0.3246458, 0.1508716, 0.5070370, 0.0940437,-0.1156494, 0.2469792,-0.8043267,-0.4357140,-0.8733509,-0.6225460,-0.3829083,-1.7567518,-0.6502616,-0.9270814, 0.1937743,-0.1213175, 1.3108869, 0.5331402, 0.3712912,-0.5408370,-0.1616578,-0.2086088, 0.7109377, 0.3097126, 0.6000508,-0.2829592, 0.4378843, 0.1945549,-0.5122082,-0.3372709, 0.9754317,-0.3920353,-0.3835542, 0.2654808,-0.0636722,-0.5294458,-0.5414770,-1.6162534,-1.7719113,-1.1219674,-1.6389497, 0.1310233,-0.5139246, 0.6081713,-0.6114676, 0.3608144, 1.5579090, 0.7669872,-0.2387142,-0.8284474,-0.7706944, 0.2080480, 0.8845709,-0.8201169,-0.4245085,-1.1629811, 0.2150673,-1.0509786, 0.5361891, 0.7242141, 0.2967338,-0.3000230,-0.0858965, 0.8487888, 0.0036949,-1.4024299,-1.5541199,-0.7447812,-0.1352649,-0.9220327, 0.5232983,-0.5899803,-0.6132784,-0.1421677,-0.0166337, 1.0060192, 0.1719259, 0.5293353,-0.7877604, 0.3734379,-0.3699375, 0.3278230,-0.5043529,-0.4097382, 0.3249711, 0.2117091,-0.5671724,-0.5709376, 0.1682089,-0.6528596, 0.6045720, 0.1058151,-0.5583809,-0.0760210,-1.9743098,-0.1220017, 0.2540798, 0.6581747,-0.5784397, 0.2014576,-0.2832963, 0.7239877, 0.4053911, 0.4798209, 0.0981061,-0.9566257,-0.1827160,-0.0298673,-0.8716737,-0.8137472, 0.2226858, 0.4265322, 0.6066489,-0.7817547,-0.2601710, 1.1462358, 0.6722240, 0.9817811, 0.2488597, 0.6871093,-0.3974302,-1.8350939,-0.7075386,-0.5056865,-0.1998491, 0.3423841,-0.1301979, 0.4043746, 0.2174891,-0.0149625, 0.8675880, 1.0337320,-0.7411476, 0.5224655, 0.1859277,-0.4151508, 0.8604328,-0.9301516,-0.5389129,-0.2891885, 0.5656695,-0.2307211, 0.5732294, 0.6420925, 0.2218203,-0.4721603, 0.2190979, 0.9139967,-0.4999197,-0.5927647,-0.5620337, 0.4007612,-0.1797759,-0.3808489,-0.1289088,-0.7384694,-0.8614723,-1.1698720,-0.6353861,-0.0988838,-0.2865485, 0.7640157, 0.2049525,-0.1984209, 0.6426540,-0.9867441,-0.9381238,-0.2333138, 0.2670340,-0.1991625, 0.6581409,-1.0677843, 0.0072668,-0.4860485, 0.0115727, 1.3184056,-0.5726752,-0.8827967,-1.2050666,-0.5422959,-0.4864232, 0.4978366,-0.1041588,-0.0045763,-0.3873108, 0.1611347,-0.8655916,-0.2733712,-0.7143766, 0.9410956, 0.7275594, 0.1319627, 0.3725329,-0.4185103,-0.5790325,-0.7509534,-0.4759186,-0.9631452,-0.0067748,-0.7674488, 0.1517497,-0.1620101, 1.3384090, 0.3302185, 0.0827468,-1.2284729,-0.3247692,-0.6726164, 0.0460367,-0.4628311,-0.6521009,-0.5035875, 0.1207552,-0.3198017,-0.5728836, 0.6083734, 0.9283292,-0.0468893, 0.8773671, 0.3416464, 0.0243977,-0.4528477,-0.9958358, 0.6564053,-0.1935053,-0.2903925,-0.2052860,-0.7855856, 0.3447580, 1.2754739, 2.1237793, 0.9602586, 1.1049661,-0.3680721, 0.5703250,-0.6732040,-0.5118013,-1.0938334,-1.1292600, 0.2946491,-0.7116542,-0.9100628, 0.3741781,-0.6227001, 0.7375584, 0.4745478,-0.5533425, 0.8311554, 0.8356014, 0.2134327,-0.5478080,-0.5473758, 0.6939618,-1.0210775,-0.1114482, 0.1596491, 0.7164255, 0.2670897, 0.3217764, 1.1412362,-0.0827452, 0.9545345, 0.0128334,-0.1351671,-0.3684703, 0.0497483, 0.5396225, 0.2186165, 0.2463144, 0.7922620,-0.1327712, 0.3423292,-0.2027319,-0.2056204, 0.6674504,-0.9233659, 0.2316367,-0.4417646,-0.2648410,-0.2614320, 0.5095931, 0.2797989,-0.5631657,-0.1750908,-0.1198172, 0.6620735, 1.1337734,-0.1110718, 1.2855966,-0.5729302,-0.3521571,-0.2321698, 0.1032530, 0.0378185,-0.4976990, 0.1377457,-0.5546236,-1.0877631,-0.6004115, 0.7158102, 0.1497823,-0.4702052, 0.7279214,-0.7682515,-0.4522289, 0.2044970, 0.1779437,-0.4218622,-0.0863415, 0.0664105, 0.3970641, 0.9986476, 1.1702577, 0.9816089, 1.0669198, 0.5621276,-0.2259157, 0.2197213, 0.6367469, 0.9749319,-0.3434288, 0.4902922,-0.6797916,-0.3074824,-1.1124862,-0.5521638, 0.5559089, 0.6917061, 1.1068029,-0.4980717, 0.6519422, 0.6867191,-0.2611098, 0.4700708,-0.1415844, 0.4236442, 0.8208550, 0.9640044, 1.2924521, 0.2035122, 0.8760021, 0.8449385, 1.2588246, 0.7805624, 0.3786648, 0.7866666,-0.1200007,-0.3078586,-0.5634569, 0.3994115,-0.0459220,-0.0884687,-0.4055426, 0.9256866, 0.1314775, 0.7611892,-0.1600763,-0.9825200, 0.6175356, 0.1586015,-0.4226167, 0.2053132,-0.2933569,-0.0910752, 0.3671453, 0.9027590, 0.4970129, 0.8783793, 1.1028813, 1.0904409, 1.7920361,-0.0029717,-0.0246585, 0.1704455, 0.2807454,-0.4395804, 0.6543815,-0.4054953,-0.0361427, 0.5654525, 0.8735713,-0.0809315,-0.2039959, 0.9069863, 0.6076852,-0.6736210,-0.3951498, 0.3285393,-0.7364753, 0.3105950, 0.3293022, 0.2561848,-0.1320177, 0.4038893, 1.2926023, 1.8231354, 0.5714492, 0.8887097, 1.5855140, 1.0956149,-0.0791639,-0.7041891, 0.3784609, 0.8386461,-0.4503895, 0.1964435, 0.3776912,-0.2346165, 0.4533428, 1.4116195, 0.2487155, 1.2003345,-0.3705481,-0.0488466,-0.9590328, 0.8772519,-0.5091187, 0.8954308,-1.1115613, 0.0504808,-0.6747659, 0.5537280, 0.1170133,-0.0385127, 1.4070368, 0.1546161, 0.8384207,-0.0669054, 0.6590101, 0.3839132,-0.3693656,-0.5833269,-0.0093960,-0.1114299,-0.7182179, 0.4768019, 0.7292391,-0.3948695,-0.5576185, 0.0170900, 0.1904015, 0.9874866, 0.4026403, 0.6684796, 0.9670860, 0.5559026,-0.2266399,-0.9263322,-0.2781358,-0.1922852,-0.8585775,-0.1376023,-0.1102437,-0.4872160, 0.9081893, 0.0282530, 0.5264088,-0.8265327,-0.5234262, 0.7932789, 0.4630170,-0.3721351, 0.0217156,-0.5572760, 0.0281748,-0.0424088, 0.8232882, 0.8563282, 0.5454773, 0.6925532, 0.3201219, 0.6925178,-0.5130690,-0.7121392,-0.6270469, 0.6440022, 0.4527840,-1.3983190, 0.2727382,-0.7964363,-0.5685040,-0.0982280,-0.3635577, 1.2811808, 0.3305217, 0.7772370,-0.1182743, 0.3581840,-0.1771248, 0.5874460, 0.1751693,-0.4385751, 0.7096810, 0.5233595, 0.6437194, 0.8117625, 0.3289613, 0.4932775, 0.9471176, 0.8422431,-0.0362695, 0.1455353, 0.0217782, 0.5384143, 0.0527304,-0.1726058, 0.1944550,-0.3389326,-0.7235572, 0.1570435, 0.5793414,-0.7317707,-0.0571867, 0.2222946, 0.5838457, 0.1351620,-0.7081021, 0.1945157, 0.3359566,-0.7907003,-1.0911461,-0.4797580,-0.7476596,-0.0112506,-0.8968095, 0.8806166, 0.7773625, 0.4968178,-0.7055166,-0.3666513, 0.2015563, 0.0922076,-1.0764401, 0.1535139,-0.8327792,-0.2541965,-1.1235455,-0.6899520,-0.7301110,-1.0698210, 0.1649385, 0.0922569,-0.7873309,-0.4695601,-0.4320298,-0.5159762,-0.4187697, 0.3405132,-0.2561916,-0.3445173, 0.4288066, 0.0589973,-0.4821693, 0.2839707,-0.1893855,-0.6425630,-0.4965178, 0.8218534, 0.5065169,-0.8413493, 0.5713815, 0.2498541,-0.6427584, 0.4080873,-1.1725718,-1.1957884, 0.5082462,-0.6100642, 0.2985398,-0.6844225,-0.1889847, 0.3882236,-0.8912924,-0.4913274,-0.5026456, 0.4162019, 0.4419204,-0.9749019,-0.6227272, 0.6403777, 0.3544561, 0.0232530, 0.5299893,-0.1045796, 0.3489578, 0.7858911,-0.7007006, 0.2622522,-0.1301107,-0.0791612, 0.4938943, 0.4721767, 0.8609206,-0.6830947, 0.1452297,-0.4941971,-0.2538153,-0.0664579, 0.0484433,-0.9827106, 0.6770861,-0.7226167, 0.5706597,-0.4266158, 0.5918947,-0.0884843,-0.6971753, 0.3123966, 0.5941731,-0.3150955,-0.5577562
 0.9540470, 0.6851289,-0.9855620,-0.4948078,-0.2525431,-0.7659141,-0.7187427, 0.8378961, 0.8139173,-0.5072590, 0.2502842, 0.2793612,-0.7254458,-0.6307368,-0.7583758,-0.0310383,-0.3255634,-0.6055873,-0.4373090, 0.0820446, 0.1072178,-0.8161716, 0.6000486, 0.3813075, 0.3744945,-0.7389199,-0.5474669, 0.0034591,-0.4437022, 0.4942352, 0.6809543, 0.1706746, 0.9650013, 0.6670514,-0.3021840,-0.6342308, 0.9238738, 0.2825114,-0.4310065,-0.1548066, 0.6555333, 0.9787565,-0.7635437, 0.6536999, 0.7273463, 0.8026228,-0.8211895,-0.5528624, 0.4875854, 0.9267853, 0.1448359,-0.1171881,-0.6947350, 0.3974211,-0.2869259,-0.1320829,-0.9765410,-0.9394563,-0.6922954, 0.8089769, 0.8795323, 0.3112592,-0.5209244, 0.5467297,-0.5601514, 0.9508567,-0.5245253, 0.9238530,-0.4338220,-0.2744639, 0.2878072, 1.0251070,-0.3139793,-0.1896750,-0.0653440, 1.0449573, 0.2812096,-0.1628033, 0.7641118,-0.1217411, 0.6993348, 0.7468871,-0.8648493, 0.3870190, 0.4596869,-0.6557082,-0.3809759,-0.0379907, 0.6204405,-0.8244581, 0.3103737, 0.4050827,-0.3129173,-0.0183442,-0.3743846, 0.1898472, 0.3558114,-0.9343248,-0.6869013,-0.1256723, 0.5557431,-1.0503017,-0.5860842, 0.8277660, 0.7779759,-0.7704917, 0.2326891, 0.6773210,-0.4349207,-0.8094716,-0.1794126, 0.4717617, 0.7206048, 0.4501767,-0.3142577, 0.7779075,-0.0207657,-0.9148388, 0.4499963,-0.8161810, 1.0085310,-0.5654355,-0.4346652, 0.4828070,-0.8472034, 0.6276017,-0.4412441,-0.7929865,-0.2877199, 0.3531073,-1.0461462,-0.8808711, 0.6894942, 0.1037731,-0.6860402,-0.0243729, 0.9480260,-0.2541366,-0.6870637, 0.1864163, 0.9362684,-0.7354515, 0.8596467,-0.6468575, 0.0111428, 0.6754856, 0.4160875, 1.0181721,-0.4166658, 0.4898163, 0.5521799, 0.4093393, 0.5815872, 0.8938965,-0.5703879, 0.4478367,-0.2143963,-0.2369291,-0.3826965, 0.8511999, 0.4609118, 0.4176619, 0.9487127, 0.0082196, 0.6347714, 0.2849639, 0.8723353,-0.3713677, 0.2739142, 0.6538864,-0.4055271, 0.4720738, 0.4291978,-0.6463553,-0.2202187, 0.5397906,-0.6321634,-0.0021616, 0.4044658, 0.5587769, 0.5065596,-0.6046382, 0.7200489, 0.7887149, 0.0697143, 0.4195434, 0.8873792, 0.3093486, 0.1712253, 0.0895297,-0.6750193, 0.2527816,-0.4763303,-0.6526974,-0.1377575,-0.9732314, 0.8014299, 0.0045911, 0.5322536,-0.4195163, 0.1013390,-0.6421724,-0.1960813, 0.4562478, 0.1290701, 0.2791173, 0.8464655, 0.9004922, 0.8639804, 0.8964891, 0.1689420,-0.0597282, 0.3179567, 0.2269216, 0.1989616,-0.3251669, 0.8702228, 0.6427235, 0.9590419, 0.3859076, 0.5970187,-1.0069600,-0.0520341, 0.4111195, 0.9042033,-0.7338178, 0.3458167,-0.7745085, 0.0272890,-0.2673505, 0.6018584, 1.1092710,-0.6796335, 0.8576471,-0.8638995,-0.7548500,-0.0384992,-0.3516789,-0.1399818, 0.9885537, 0.8085151,-0.2163189, 0.6463564, 0.0902036,-0.1547419, 0.8179898,-0.9200289, 0.1624308,-0.9266860, 0.6297949,-0.4227853,-0.9169009,-0.5473210,-0.8263506,-0.2358055, 1.0315706, 0.1323818,-0.1601862,-0.4936266, 0.8252017, 1.0398408, 1.1275010,-0.4366737, 0.2754430, 0.1152463, 0.3743285, 0.5552230, 0.4155871,-0.1787456,-0.0067354,-0.2811936,-0.2533619,-0.2363202,-0.0373979,-0.3137578,-0.4584800, 0.4975514, 0.0165748, 0.0184970,-0.4775199, 0.1139852, 0.4023826, 0.1170960, 0.0491313,-0.0530710,-0.6318620,-0.1577900, 1.0194699, 0.0047049, 0.0293819, 0.5799262, 0.9501986,-0.8340951, 0.3244728,-0.7054304,-0.9060668,-1.0572001,-0.0311001,-0.2429370,-0.4476171,-0.5796176,-0.2985994,-0.2298509, 0.6693051,-0.6013257,-1.0566139, 0.4640828, 0.2495544,-0.1556220,-0.7044404, 0.8297594, 0.8833794, 0.0461719,-0.1636319,-0.4167523,-0.4016600,-0.0128403,-0.0131153, 0.3401523, 0.8013945,-0.3650070,-0.2183717, 0.0458114,-0.2954782,-0.8244639, 0.4978532,-0.0189234, 1.0265631, 0.3346033, 0.3116855,-0.6994446,-0.9223321, 0.7369747, 0.4535490, 0.5570449,-0.3440771,-0.2254429, 0.8380565, 0.3305676, 0.2269849, 0.3567998,-0.5952867, 0.7492722,-0.3300878, 0.7145138, 0.4344135, 0.3771697,-0.8254112,-0.5551626, 1.0037636,-0.3783654, 0.1343190,-0.8781169, 0.5247315,-0.7504028, 0.0705977,-0.3010235, 0.8660999,-0.5747927, 0.6192836, 0.8819349,-0.1663016,-0.9976150,-0.5678573,-0.7554186,-0.3688615,-0.5571569,-0.1287621,-0.5342702, 0.5325624,-0.3455164, 0.7076459,-0.7587452, 0.6320618,-0.9167413,-0.1019398, 0.4462128, 0.0517706,-0.5539813, 0.3693185, 0.1314097, 0.5357990,-0.3012185, 0.7277779, 0.2587237,-0.1851213,-0.4160587, 0.9550880, 0.3068696,-0.2999784, 0.2356976,-0.1396417,-0.3474834,-0.8062455,-0.0461359, 0.7165201, 0.2499182, 0.0547347, 1.1773122,-0.3517772, 0.8128468, 0.0423729, 0.5674472,-0.2401044,-0.4026343,-0.0448718, 0.6108752, 0.4442098, 0.3269544, 0.5571749, 0.7114035, 0.6165058, 0.8888096, 0.4747119, 0.6202600, 0.3154748,-0.3630034,-0.5499605, 0.7264776,-0.3818107, 0.1031402,-0.7173898,-0.6696271,-0.2827147,-0.4017063, 0.6801204,-0.1512782, 0.8049525,-0.7358521, 0.4976592,-0.2294906, 0.2198876,-0.1167441,-0.3951455, 0.7979199, 0.6020038, 0.4347076,-0.3060684,-0.7227099, 1.1468234, 0.7487671, 0.0090841, 0.6542456, 0.3183694,-0.4523979, 0.7655817, 0.3938995,-0.7750536,-0.5785420,-0.6577185, 0.0490785,-0.3002056, 0.3882168,-0.8231014,-0.7536768,-0.9624657, 0.4499267, 0.8086246,-0.5479085, 0.3399644, 0.1976994, 0.6283744, 1.2116846,-0.6448207,-0.1603806,-1.0600756,-0.6704820, 0.2001912,-0.7710314, 0.6699133, 0.7120917,-0.7205939, 0.1935447,-0.3258288, 0.4819171, 0.6621084, 0.3642430, 0.4399855, 0.0909157, 0.6058612,-0.9321012, 0.4257163, 0.6939795,-0.5867697, 0.3359495,-0.3535386, 0.9745562,-0.1657011,-0.1208677,-0.5321380, 0.2618328,-0.7980105,-0.0196644,-0.0554483,-0.5543088, 1.0508561,-0.5855542,-0.7348604,-0.1773707, 0.3831251, 0.1949474, 0.4539089,-0.2901610,-0.5169824, 0.0521187,-0.5069370, 0.6351301,-0.3655832, 0.7148902,-0.6738201,-0.4724113,-1.2971823, 0.3510687,-0.7149065,-0.9449671, 0.8499201,-0.2024992, 0.1388161,-0.7498707, 0.3194048,-1.1128874, 0.2613688, 1.0634154,-0.2566784, 0.9867705,-0.8567874,-0.1378942, 0.3531117,-0.7054979, 0.6181233, 0.2529234,-0.7450679,-0.2361492, 0.9866080, 0.8585715,-0.2901711,-0.8183459,-0.1709339,-0.3685462, 0.3911217,-0.0804125, 0.1023585, 0.3951792,-0.7832417, 0.3726526,-0.7418478, 0.0591079,-0.7708961, 0.7586877,-0.6499620, 0.5562597, 0.8900906,-0.1814696,-0.5833610, 0.3205872,-0.3622264,-0.7397713, 0.8544558,-0.9070959, 0.0093902,-0.9504904, 0.9379949, 0.7564200, 0.4399165,-0.7317045, 0.8369865,-0.7538848, 0.1490689, 0.0276415,-1.3108992,-1.0542239, 0.5608911,-0.5620265,-0.6297263, 0.2950126,-0.3127157,-0.1068960, 0.2625235, 0.4488786, 1.1365403, 0.9820947,-0.7383489,-0.9018272,-0.5144753, 0.0882390,-0.6315878,-0.8546205,-0.2482712,-0.5989184, 0.6778836, 0.9358043, 0.5482537, 0.5112368,-0.2305785, 0.9565719,-0.5677565,-0.4061724, 0.0787551,-0.6146274, 0.5385736,-0.1417811, 0.7070311, 0.5561630, 0.7579328, 1.0770447, 1.4120931, 0.5678345,-0.0758660, 0.5493131, 0.7934282,-0.4194417, 0.2215639,-0.2550130,-0.6450414, 0.0246012,-0.3340663, 0.5591175,-0.3494999,-0.2988776,-0.4422032, 0.1140951,-0.5276179,-0.3490039,-0.5549414, 0.9980929, 0.2071991,-0.4611884, 0.6850764, 0.6129852, 0.8410795, 0.5082459, 0.5944496, 0.3333338,-0.4035452, 0.4968707,-0.8384013, 0.8630403,-0.2616256, 0.9921603,-0.1972880,-0.4407498, 0.2206387, 0.1821698, 0.3721821, 0.1994646, 0.3534136,-0.0125647, 0.2880335,-0.8329902,-0.2637298, 0.4507835,-0.3665638, 0.3331017,-0.2981281,-0.2397038, 0.7339140, 0.4148268,-0.2174537, 0.2823577, 1.2901156,-0.4871699, 0.4391137, 0.8451243, 0.0686929, 0.9264839,-0.0359765, 0.8349367, 0.1929573,-0.8782768, 0.3732447, 0.5772641, 0.0447283,-0.4988008,-0.7213290,-0.7621840, 0.6209561, 0.4275733,-0.0379070, 0.2323209, 0.2186323,-0.5528865, 1.0193646,-0.2299217,-0.1754073, 0.4097244, 0.7270721,-0.1421465, 0.8282221,-0.1848834, 0.2594198,-0.2820222, 0.2092700,-0.2583605,-0.8392774, 0.7733196,-0.9219593,-0.8822600, 0.6137664,-0.8958515,-0.3563600, 0.3857727, 0.6618623, 0.7752805,-0.6682315, 0.8702473,-0.8046153,-0.0057641, 0.4026072, 0.9832966,-0.7119971, 0.5483273, 0.1530129, 0.3037852, 0.2665286, 0.2984416, 0.6110203,-0.5489331, 0.3931195,-0.7291747,-0.7204469, 0.8097769, 0.5339725, 0.3605626, 0.1043680, 0.7018061, 0.9146881, 0.7163513,-0.1824488, 0.0578548,-0.8889306, 0.4021280, 0.9085339,-0.1623297,-0.6209482, 0.9487581,-0.2192764,-0.4517110,-0.8319313, 0.8400879, 0.9440189,-0.8919529, 0.3483106, 0.6605733, 0.4287773,-0.6540287,-0.0830649,-0.4282511,-0.3526704,-0.9373738, 0.5486179, 0.6155915, 0.0725662,-0.1809165,-0.8159090,-0.2505930,-0.6888506,-0.2112914,-0.7065560, 0.4972000, 0.0330820, 0.2651237, 0.5228802,-0.5944090,-0.4412193,-0.1494112, 0.2033009,-0.4210780,-0.3554751,-0.5233243, 0.1148260, 1.0080772,-0.9201195,-0.3184826, 0.3191683, 0.7865333,-0.0074569,-0.4559822,-0.0030735,-0.9331467, 0.2518863, 0.9045037, 0.0256985,-0.3809253,-0.1081075
 0.5729508,-0.1645215,-0.6684718, 0.7428384,-0.1883711, 0.5550327,-0.0754622, 0.7878639,-0.5980153, 0.5278881,-0.5117347, 0.9702663,-0.4870484,-0.2689799, 0.8217847,-0.0577365,-0.2535036,-0.7429980,-0.4847184, 0.3839537,-0.1766900, 0.6535515,-0.9036919, 0.9903678, 0.5631629,-0.0406839, 0.5212840, 0.5180403, 0.4836644, 0.9957111, 0.8862551,-0.8259323,-0.0724916,-0.3195346,-0.4895383, 0.0608756, 0.3426165,-0.5258868,-0.3249481, 0.4980652,-0.9129899, 0.4584500,-0.6178812,-0.0038125, 0.0602179, 0.9050780,-0.8522764,-0.7597990, 0.6518836, 0.0492914,-0.2827181, 0.1513969,-0.4742068, 0.4021039,-0.8510106,-0.8949525,-0.2710194, 0.8384622,-0.4246220,-0.0328853, 0.8184526, 0.9837214,-0.4999591,-0.4266500, 0.4722891, 0.6460968, 0.1144120, 0.5845481,-0.7048578, 0.6456647,-0.2897715,-0.9018866,-0.7162481,-0.8050850,-0.3096053,-0.1123154,-0.9470075, 0.7161784,-0.2923688,-0.4791361, 0.3841403, 0.7352536,-0.0471072,-0.8231083,-0.1189639, 0.3683745, 0.4347260, 0.3455333,-0.2397493, 0.9792779,-0.4809267,-0.6751868, 0.5407650, 0.4312848, 0.3039181, 0.1940090,-0.0635738,-0.4883941,-0.2981181, 0.5056498, 0.2117460,-1.0660551, 0.1758299, 0.3426101, 0.5829722, 0.6783146,-0.0030952,-0.7748773, 0.1664852, 0.6684447, 0.8508118,-0.3533736,-0.1225726,-0.8349207,-0.5053367,-0.7016388,-0.1452719, 0.4068409, 0.7052953,-0.9122146,-0.8453624,-0.2465486, 0.0542092, 0.2777507,-0.1747973, 0.6970864,-0.9639434, 0.0598974, 0.6629767,-0.8120158, 0.0153080,-1.0881527,-0.1757136,-0.9314311,-0.6770555, 0.3022303, 0.8097492,-0.9393056,-0.6869691,-0.3149603,-0.6066397,-0.5273195, 0.8478402,-0.9605250, 0.7861433,-0.2467811,-0.6909409, 0.5547174,-0.4942884, 0.1211217, 0.1738485,-0.1951374, 0.5908359, 0.6522524,-0.6163389, 0.4316127,-0.3972175,-0.2093801, 0.3442981,-0.5537787, 0.2986219, 0.1023100,-0.3180118, 0.3361254, 0.1994993,-0.0107865, 0.2720572,-0.0083496, 0.3388974, 0.1634927, 0.8152981,-0.3025042,-0.9524082,-0.0237225,-0.4586679,-0.5222388, 0.3445331,-0.8752574,-0.0876497, 0.6029498, 0.3007117, 0.7123466, 0.8084713, 0.9920926,-0.4341244, 1.2058869,-0.1465856,-0.0732666, 0.6092830,-0.0162446,-0.7744479,-0.0698301,-0.1616039,-0.3037552,-0.8771795,-0.2082096, 0.6213951, 0.5160173, 0.0239473,-0.9885127, 0.8104651,-0.0844839, 0.4727131, 0.1946251, 0.6166946, 0.0148902, 0.7450294,-0.5326323, 0.1336385, 0.7127128, 0.5251616, 0.3354506, 0.7560008, 1.1537132, 0.2538477, 0.1619573,-0.4931388,-0.5383659,-0.6643337,-0.3744574, 0.5743552, 0.7011118,-0.6201362, 0.3787626, 0.0928423, 0.1572848, 0.5257598, 0.1129854, 0.3477291,-0.5463881,-0.6506801, 0.1905822, 0.0761670,-0.5107628, 0.1853768, 0.6737386,-0.7882638, 0.6528301,-0.0705868, 0.4894690,-0.0127225,-0.5783600, 1.2185746,-0.3465631, 0.4342298, 0.1233597,-0.1336278, 0.3469605, 0.9622051, 0.2530013,-0.6857406,-0.0187648,-0.8819602,-0.1237129, 0.0528970, 0.4791600,-0.5312344,-0.5314852, 0.3031350,-0.3695209,-0.0117699,-1.0008257,-0.3866459,-0.5778646, 0.8005630,-0.5191579, 0.1424292, 1.0963398, 0.4082085,-0.3216584,-0.6770161,-0.1432436,-0.5884802, 0.5362897, 0.0900295,-0.9054765, 0.5931995,-0.1127191, 0.9932413, 0.5564673, 0.7745728, 0.7267978,-0.6555472,-0.2959811,-0.0082532, 0.5724874,-0.2154389,-0.5076179,-0.2849951,-0.1878328, 0.3855571,-0.1547725,-0.6974632,-0.6424868, 0.4279116, 0.9839506, 0.7054301, 0.1562290, 0.6162279,-0.7145028,-0.9037186,-0.3835013,-0.9311548, 0.5601696,-0.1080146, 0.8583590, 0.0903064,-0.4103054, 0.8135390,-1.0266809, 0.5017114, 0.7038068,-0.0789517,-0.8092471, 0.0520115, 0.3558679,-0.2370386,-0.8692975,-1.0470031,-0.2600287,-0.1592273, 0.3637450, 0.1971113, 0.4247173,-0.4857853, 0.1983191,-0.7046622, 0.9012770,-0.1523796,-0.8507618,-0.3520571,-0.2209451, 0.7997442, 0.9820125, 0.1836317,-0.9008498, 0.0929569, 0.6927992,-0.9243535,-0.2664017, 0.2461575,-0.8429468,-0.4844107,-0.7957864,-0.1415049,-0.7009301,-1.2409954, 0.2502415,-0.3045572, 0.3783309, 0.2681902, 1.5204069,-0.4230419,-0.8766385,-0.8057701,-0.7477517,-0.7357248, 0.4732230, 0.0649671,-0.0917902,-0.6590166,-0.6013837, 0.7201398,-0.0103900, 0.5367774, 0.3563191,-0.0390464, 0.3031429,-0.1347828, 0.2761542,-1.0057509,-0.1207650,-0.9012937,-0.0096344,-0.8586472,-0.0221844, 0.4373436, 0.7614211, 0.1946218, 0.0925788, 0.7723023,-0.7124944, 0.6156407, 0.1581860,-0.5896018,-0.3242597,-0.5267610,-0.2255186,-0.3254630,-0.0879445, 0.9860361, 0.8830627,-0.1384467,-0.4429217,-0.8306085,-0.4954643, 0.9733567, 0.1168401,-0.4435239,-0.9231596,-0.7504538,-0.4075536,-1.2122089, 0.9043559, 1.6276203, 0.7079866, 1.0379630,-0.5106153,-0.6383094,-0.6404914, 0.3035119,-0.2696189,-0.6045984,-0.8013642,-1.9634537,-1.3156446,-1.4522746, 0.3500880, 0.2826528,-0.5962953,-0.0782168,-0.5566880, 0.3879937, 0.6468141, 0.7372772,-0.7309625, 0.1985057,-0.1614730,-0.6739694,-0.3438275, 0.0809274, 0.5815929, 1.2931540, 1.2997472, 0.6252830, 0.4296747, 0.6527883, 0.1332722, 0.8900748, 0.6322143,-0.8672428,-0.8739904,-1.1853448,-1.5335502, 0.5261069, 0.0138380, 0.2660584, 0.9734892, 0.7096879, 0.2396690,-0.3738093, 0.0300423,-0.2077446, 0.4640389, 0.1757169,-0.2895589,-0.8067567,-0.2483450,-0.0432825, 1.0824089, 1.8155279, 0.6751495, 0.3433023, 0.1960009, 0.4254574, 0.8282609, 1.1937941, 0.8403769, 0.0317589,-1.4245068,-1.4632417,-1.1679882,-0.7142349, 0.9497794, 0.1994497,-0.0484276, 0.2967838,-0.1700809, 0.3124302, 0.0201212,-0.4534835,-0.6466316, 0.3002281, 0.2075213, 0.4483520,-0.5505578, 1.5309263, 2.2835085, 0.5829977,-0.1862805, 0.4350119,-0.2167863, 0.6372339, 0.1685064, 0.2630720, 0.6914098, 0.5970897, 0.3059882, 0.2086955,-0.2998474,-0.5653852, 0.4966316, 0.1490543, 0.8541185,-0.5993162, 0.7233372,-0.7367668,-0.3720302,-0.7039946,-0.1795025, 0.6919269,-0.4942278,-0.4962246, 0.1916512,-0.0068786, 0.8919578,-0.0155220, 1.1383229, 0.9370622,-0.5725655,-0.4974175,-0.4076903, 0.3570680,-0.8091788,-0.1532619,-1.1337156,-1.2121986,-0.1487370,-0.3304001,-0.5823112, 0.9138217,-0.2670709,-0.0496965,-0.4568078,-0.4917913, 0.7341866,-0.7068616, 1.0716320,-0.0827139,-0.0246370,-0.4972590,-0.2541948,-0.6367439, 1.3408651, 0.4688372,-0.8162194,-0.7980635, 1.0939490, 0.9343685, 0.3114001,-0.8937303, 0.6269766, 0.0567116,-0.3413195, 1.0036166,-0.4216125,-0.2648239,-0.3904935, 0.8324721, 0.7585620, 0.1629565,-0.3826150,-0.3605202,-0.2712057, 0.3842682,-0.1876591,-0.0820936, 0.3844597, 1.1005346,-0.6778732, 0.6358510,-0.0527355,-0.9737076,-0.0480663, 0.3598656,-1.0603182, 0.0654029, 0.0861868, 0.2979593,-0.5506389, 0.8571822,-0.2114498,-0.5452040,-0.4797151,-0.5103993, 0.7693376,-0.3564350, 0.8970201,-0.3430649,-0.8594497,-0.6605576,-0.3397317,-0.7372852, 0.9458855, 0.1972729, 0.9300281,-0.4325755, 0.6226475, 0.4466853,-0.8294563, 0.7194806,-0.6806873, 0.3859492,-0.2769688, 0.6834814,-0.6157568, 0.0077554, 0.6851493,-0.2359114,-0.3084393, 1.0503964,-0.2108189, 0.6457049,-0.3084320,-0.0901859,-0.3879668,-0.3295965,-0.0072046,-0.5180321, 0.2074327, 0.3148237,-0.1062620,-0.5890539,-0.2120073,-0.4761356, 0.9721160, 0.1206416,-0.2286941,-0.4254399,-1.3057981, 0.4518985,-0.1154235,-0.1842628,-0.1658838, 0.2174404, 0.4530282, 0.7969040,-0.4877349,-0.3715091, 0.1240693, 0.2820080,-0.2240906,-0.5423671,-0.7830409,-0.4948915, 0.3180429,-0.7367788,-0.8037572, 0.2179140, 0.8463268,-0.5337842, 0.8283307,-0.2090678,-0.1546014, 0.2982349, 0.8285631, 0.4332366, 0.0267018,-0.5531362,-0.6249679, 0.5774035,-0.3150846, 0.7059317, 0.5050859,-0.2827427, 0.9072103, 1.2177648,-0.2037955, 0.8501515, 0.5313382, 0.0674080, 0.7492441,-0.5610634, 0.2944023,-0.0936408,-0.0691458,-0.9814762, 0.6656787, 0.7801117,-0.3890631, 0.3048381, 0.6663966, 0.2684779,-0.6943978, 0.6925071,-0.9289855, 0.3386266, 0.3502458,-0.5703223,-0.4123084, 0.0199893, 0.3125803, 0.2560312, 1.0136177, 1.1064506,-0.6092982, 0.6689817,-0.0159771, 0.3952249, 0.3578438, 0.7131465,-0.7247559, 0.7663443,-0.2111597, 0.1708031,-0.2230909, 0.6987342, 0.3722266,-0.0489167,-0.4049245,-0.1381853, 0.8680436,-0.2905111, 0.0685993, 0.6001608,-0.8347585,-0.2160401,-0.8854045,-0.1727380, 0.7138007, 0.4049758,-0.0745558, 1.0211114, 1.0085404, 0.6824520,-0.5575931,-0.2230505, 0.3628977, 0.7214317, 0.8737074, 0.9818973, 0.9701933,-0.0621816, 0.0419112, 0.6691056, 0.4630157,-0.1109976, 0.7951944, 0.4389098, 0.1937604, 0.2151083, 0.8701316,-0.8369708,-0.2408401,-0.1875455, 0.3747261,-0.9190771, 0.9228400,-0.2043142,-0.0970436, 0.6663061, 0.4546198,-0.0336846,-0.1120664, 0.5681853,-0.1003698, 0.8932561,-0.5289020, 0.2709437, 0.7075416,-0.3914962, 0.8973418,-0.4392055, 0.2765028,-0.9440311,-0.1770232, 0.7339020,-0.4238769, 0.1650345, 0.4552891,-0.8583624, 0.2363625, 0.1903600,-0.6375218,-0.1005178, 0.0213383, 0.7392684,-0.6443791, 0.8048969, 0.8169271,-0.8387935,-0.5273301, 0.8156999, 0.8211158
 0.1120674, 0.6245754, 0.8006312,-0.8710261,-0.0834404, 0.7786574, 0.1285575, 0.4549535,-0.5986468,-0.9048597, 0.4899009, 0.6901029, 0.5215612,-0.2529534, 0.5534632,-0.3603715, 0.5039297,-0.6471704, 0.7130217, 0.5802657, 0.5441495, 0.0344643,-0.3468802, 0.4957778, 0.1166221, 0.9383181,-0.6253351, 0.5970369, 0.9005590,-0.4028146,-0.0223379,-0.9142349, 0.6311119,-0.2223575,-0.0460015, 0.6759889, 0.0455318,-0.4491855,-0.1733885, 0.5930057, 0.8081796,-0.7678286,-0.5436558,-0.7746125,-0.8611899, 0.1114776, 0.1106697,-0.2185218,-0.2520842,-0.5232884, 0.6220060,-0.0246510,-0.1633670, 0.7170707,-0.4646091,-0.2993513,-0.3503214, 0.4604758,-0.7021647, 0.1006277,-0.2284893, 0.7832465,-0.9435233,-0.7697074, 0.0605910, 0.3873554, 0.9833593, 0.6548031, 0.3950699,-0.9773453, 0.2589223,-0.2948997, 0.5217111, 0.2905600,-0.3556006, 0.9983035,-0.6265758,-0.0455041,-0.7189095, 0.0427602,-0.0028378,-0.5497859, 0.0095550, 0.2758801, 0.4018920,-0.2327682, 0.3060723, 0.5376694,-0.7319443, 0.8826061, 0.5796369,-0.9786602, 0.7569401, 0.5420186, 0.9138692,-0.0809730, 0.7069303,-0.7994742, 0.9703518, 0.2481643, 0.0280820,-0.8205255,-0.1184404, 0.4338923,-0.3025464,-0.4836539, 0.5721878,-0.3853802,-0.1262781,-0.9320651, 0.6387027,-0.0240474, 0.4570967, 0.6554932,-0.4292085, 0.5534206, 0.2114126, 0.0205805, 0.3598050, 0.6120930, 0.9002836,-0.6405708,-0.7321342,-0.1615080,-0.4959348, 0.7052489,-0.9011416,-0.3587207, 0.3795441, 0.5600699,-0.4904654,-0.7545021,-0.2143370, 0.7119570,-0.1338392, 0.0663826, 0.0692014, 0.2153613, 0.1983238,-0.4528401, 0.7680453,-0.3883763, 0.0912853,-0.4677723,-0.8929316,-0.6428256,-0.1260510,-0.2464404, 0.6988794,-0.7801083,-0.9287709,-0.3442234, 0.5174250, 0.5527606, 0.6076236,-0.6393412,-0.7640714,-0.2025913, 0.7248310, 0.4722825,-0.7697143,-0.7697917,-0.4860723,-0.1996311,-0.9249286,-0.4156344, 0.1445640, 0.0096363, 0.7494423,-0.1095666,-0.1584054, 0.4603408,-0.9223773, 0.4916016,-0.0833579,-0.3659656, 0.9838204,-0.6804181, 0.6262137,-0.4683529,-0.8180330, 0.4400880,-0.1449266,-1.1587281, 0.6160893, 0.5252859,-0.7098214,-0.2086870, 0.7478302, 0.3131403, 0.1875610, 0.0779119, 0.4328431,-0.1045151,-0.8846615,-0.9300701,-0.2342635,-0.6310439, 0.1512970,-0.7226406,-0.9657208, 0.7335423,-0.2450203, 0.6353157, 0.9647032, 0.9302030, 0.3077610, 0.4505961,-0.4196291,-0.8776819, 0.7450583,-0.2825970, 0.2359085, 0.1203233,-0.1413400,-0.9242053,-1.0636024, 0.5450358,-0.2077064,-0.1192746,-0.0312536, 0.5086479, 0.8355809,-0.8514491,-0.6512990, 0.0437516, 0.5314549,-0.1423301, 0.5162337, 0.9588243,-0.0577260,-0.4997093,-0.2986069,-0.7007464,-0.7642817,-0.2673942,-0.1107128,-0.2288603, 0.6883639, 0.7624211, 0.0069811, 0.3375269,-0.3417727, 0.1425836, 0.6700795,-0.4676171, 0.2482342, 0.2276170, 0.2793099, 0.1627547,-0.4058759,-0.0414870, 0.0144779, 0.2689707,-0.2988383,-0.0757541, 0.6420331,-0.2984401, 0.6276834,-0.7743235, 0.0174115, 0.3478088, 0.2850737, 0.0510078, 0.6935067, 0.1774357, 0.6828313,-0.4510377, 0.1233754,-0.4950950, 0.1208525, 0.7557826,-0.3158774,-0.2055681,-0.7296852, 0.8723310, 0.3174612,-0.1102956, 0.2410700,-0.6754550,-0.5241157, 0.9216912, 0.6395538,-0.2879777, 0.6111932, 0.8241417,-0.0762295,-0.4922187, 0.6785779,-0.0070884, 0.4403061, 0.1188812,-0.3571374, 0.9069727,-0.3817106,-0.1651889, 1.2053406, 0.0479553,-0.2567239, 0.0034897,-0.7776722,-1.2342313, 0.5997655, 0.3994279,-0.1181915, 0.0018234, 0.4577770, 0.4481433, 0.0250474,-0.6228774,-0.9429664,-0.6642673,-0.0600684, 0.2427832, 0.9102188, 0.2287133, 0.3438284,-0.0120592,-0.8774584,-0.6534262,-0.7573407, 0.0417264,-0.2868084, 0.9041055, 0.4447763, 1.2158854,-0.5890605,-0.9999152,-1.2183902,-0.1633982, 0.2874476, 0.1064406, 0.9464384,-0.1758170, 0.1895679,-0.6257902,-0.7630426,-0.5212578,-0.2814025, 0.5798726, 0.8341842,-0.3580769, 0.7227934,-0.4335322, 0.1959637,-0.2481472,-0.4611809, 0.1628417, 0.9354747, 0.7295114, 0.2689883,-0.1693340, 0.3640808,-0.2960312, 0.8297783,-1.0754256,-1.1035707, 0.1484090,-0.9444078,-0.2057062, 0.2898275,-0.9106144, 0.6223458, 0.7981175,-0.8398225, 0.6572478, 0.8486296, 0.5785019,-0.9382646,-0.5647147,-0.0852114, 0.0706099, 0.2582009,-1.2893560, 0.3594543, 0.7888340, 0.3585471,-0.4846400, 0.3491492, 0.0682238, 0.3642716, 0.7601563,-0.5386769, 0.0002480,-0.2653377,-0.3369942, 0.6673336, 0.8646037, 0.7087511, 0.9075281, 0.8348587,-0.0563747,-0.9541569,-0.9139634,-0.0805891,-0.4026678, 0.0334236,-0.6632950,-0.7305439, 0.5781184,-0.6243691, 0.5218502,-0.5877762,-0.8284973, 0.7738837, 0.2779423, 0.3252144, 0.5252499,-0.4958896,-0.1622512,-0.9293984,-0.2045482,-0.8974669, 0.2398500, 0.1370265, 0.4823779, 0.7984051,-0.8373964, 0.0239594, 0.3248133, 0.3376495, 0.9472954,-0.6067367, 0.7342133,-0.5059617,-0.6640673,-0.7440797, 0.2240221, 0.1251692,-0.1912221, 0.6527160,-0.1710372,-0.6674893,-0.5309117, 1.3904255, 0.5240721,-0.4384169, 0.1432665,-0.4841861,-0.5823918, 0.7460919,-0.3116653, 0.6867953, 0.5651290, 0.8914022,-0.0583550,-0.6431565,-0.7326137, 0.5616550,-0.9207491,-0.0851671, 0.0612053,-0.6898839, 0.0999718, 0.4180965, 0.1933976,-0.1787862, 0.8900440,-0.6656342,-0.6673991, 0.1282762, 1.1304906, 1.1529329, 0.0321818,-0.9685818,-1.0497600, 0.1934184, 0.2481736, 0.8288221, 0.9217073,-0.0082435,-0.6809627,-0.1163947,-0.5971709, 0.9789061,-0.4020456, 0.3363696,-0.2393556,-0.1863599,-0.0258032,-0.3011616,-0.9517364, 0.5351285, 0.3835641, 0.5122594,-1.2403798,-0.8688146, 1.2340082,-0.4254447, 1.2603059, 0.8862911, 0.5003752, 0.1257700, 0.3486421, 0.1895533,-1.1303084, 0.7744089,-0.0852991,-0.2346051,-0.2006657, 0.0464891, 0.5096122,-0.4963252,-0.7469812,-0.5871271,-0.8169576,-0.8177196, 0.0709361, 0.8818617, 0.3996040,-0.8838225, 0.5308130, 0.2399843,-0.1668998, 0.1367918, 1.0606665,-0.1981723,-0.5773253,-0.2185948,-0.3645772,-0.8743080,-0.4518337,-0.2641217, 0.2769293, 0.7251630,-0.1333125, 0.0696811,-0.2224586, 0.3045055,-0.2120061,-0.6816333,-0.8722251,-0.4197653,-0.0580724,-0.0473187,-0.8199669,-0.1035572,-0.5099964,-0.4139562,-0.9568960,-0.9187757, 0.7595749,-0.5675612,-0.6056101, 0.8254358, 0.6431273,-0.7469198,-0.5876493,-0.3936180,-0.5854356, 0.4321138,-0.5161471,-0.4378143, 0.6167306, 0.8362447,-0.2155295,-0.3434794,-0.3303761, 0.8363891,-0.3337101, 0.7829420,-0.7907853,-0.8539464, 0.8572694, 0.0718736, 0.1634600,-0.3711959, 0.3215245, 0.6898776,-0.4388777, 0.9583871,-1.0199160, 0.9116996, 0.3609235, 0.1664195,-0.5267968,-0.8594074, 0.0518483,-0.2915538,-0.5736956,-0.2583751, 0.8321687, 0.5681678, 0.8624559, 0.1156591, 0.1603978,-0.3539192, 0.0612132,-0.9305490, 0.0127994, 0.3633205, 0.6021154,-0.0321165,-0.0058214, 0.3750227, 0.5628354, 0.0968482,-0.7301944, 0.0894933,-0.1700029, 0.0266177,-0.0909853,-0.5219273, 0.4534297, 0.3585027,-0.7072544, 0.1181964, 0.6187476,-0.6760988,-0.7333313,-0.3046247, 0.2905253, 0.3446217,-0.4145423,-0.8394126, 0.8888052,-0.1641066,-0.1381405,-0.2971497,-0.2843620,-0.7295309,-0.7687201,-0.9188094,-0.6676941, 0.3856174,-0.1253590,-0.3369169, 0.3721317,-0.1599354,-0.7350907, 0.3641892,-0.7416100,-0.4948188,-0.7993332, 0.5574567,-0.0954215, 0.8241813,-0.5071565, 0.2197593,-1.0395752, 0.0978113,-0.4743259, 0.5136805, 0.2357083,-0.3032915,-0.9892210,-0.9314399, 0.4249774, 0.8822056,-0.8724292, 0.6856432, 0.7464501, 0.2799979,-0.6100144,-0.0865005, 0.6004870,-0.5537703,-0.2950243,-0.7492310, 0.9098576,-0.4387012, 0.4485606,-0.9821549, 0.7994746,-0.5157140, 0.8617128,-0.2473239,-1.0085837, 0.2984488, 0.5672659, 0.6360279,-0.2388728,-0.3499260, 0.3431838, 0.1884427, 0.6087626,-0.6710279,-0.3030100, 0.5861191,-0.5606146, 1.0717247,-0.7432618, 0.9204891, 0.3405728, 0.5524369, 0.2159548,-0.8452498, 0.6398981,-0.7151920,-0.9086668,-0.1065384, 0.2863256, 0.2032971,-0.3358098, 0.3511486,-0.5062042,-0.7833082,-1.0020866, 0.1237853, 0.1949412,-0.4638089,-0.2929117,-0.2501093,-0.7590682,-0.4329798,-0.2488716, 0.4215697, 0.7843319, 0.0098823, 0.4782557,-0.7967246, 1.0099153, 0.0010370,-0.5573810, 0.1427235,-0.7518798,-0.6306254, 0.3805206,-0.4559928, 0.7301735, 0.6255188,-0.3118726, 0.7203383, 0.0909038,-0.8947749, 0.6572025,-0.1357539, 0.9478098, 0.9669722,-0.9305141, 0.7605933, 0.5128586,-0.1889805, 0.4169382,-0.7738677,-0.3156008, 0.2477824, 0.3339979,-0.8014811, 0.2489367,-0.2053795,-0.0650332, 0.3694910, 0.2779781, 0.9608342, 0.1574110, 0.6553683,-0.1672369, 0.2846926,-0.0983181, 0.4522198, 0.3038324, 0.9472516,-0.3464587,-0.2609899,-0.8081823, 0.7511169, 0.3229803, 0.8513025,-0.0158813,-0.9804148, 0.4294410, 0.9775923, 0.7866936,-0.5007971, 0.8096921,-0.9207953,-0.5046358, 0.9611844, 0.2693801,-0.2190797, 0.3300684, 0.3145545, 0.9991072, 0.5932419, 0.1543966, 0.8238626, 0.3219856,-0.5884655,-0.0659502,-0.4122779, 0.3358679,-0.3250074,-0.8219314
 0.5565764, 0.3002142, 0.0822327, 0.0987757, 0.5980723,-0.0212101, 0.2426321,-0.5654598, 0.5111649,-0.1077396, 0.6564805,-0.1335131, 0.8492086,-0.5382935, 0.5934693, 0.7844393,-0.1571633, 0.6774186, 0.1328181, 0.0123569,-0.4392133,-0.2373477, 0.2864445, 0.1121576, 0.4761058, 0.5271998, 0.5780154, 0.8701380, 0.0477792, 0.8594448, 0.9624690, 0.8920860, 0.0372281, 0.0309345, 0.8247253, 0.6561363,-0.1085395,-0.6839598, 0.8415726, 0.1318181,-0.9591852, 0.5027779,-0.0728838,-0.4072277, 0.5412269,-0.7710549, 0.8218460, 0.4737427, 0.0636436, 0.6347224, 0.7239168, 0.5001435,-0.3228191,-0.4864382,-0.4077897,-0.2200993,-0.6576474,-0.0999442, 0.6117447,-0.7898496, 0.2656200,-0.3361676, 0.2600918,-0.5209281, 0.3667950,-0.3603267, 0.7360985, 0.3525494,-0.5164660, 0.4960232, 0.6619360, 0.0392190, 0.0629289,-0.8666910, 0.0725047,-0.3114018,-0.1690631,-0.1443557, 0.3141947, 0.8022728,-0.7935719,-0.8411045,-0.2478188,-0.0499603,-0.9187833, 0.1768516, 0.6730565, 0.2999931,-0.4874367, 0.2934741,-0.6403479,-0.2203856, 0.8907672,-0.0280748,-0.2475413, 0.9667984, 1.0289265, 0.3416874,-0.0370054,-0.6421994,-0.0109993, 0.6302261,-0.3127124, 0.5790513, 0.0469499, 0.8569566,-0.5133363, 0.4260840,-0.1310228,-0.2830995,-0.3155283,-0.0594838,-0.3246134,-0.1491343,-0.6525429,-0.0348841, 0.2715265, 0.3800643,-0.7572205, 0.2390416, 0.0935869, 0.0149965, 0.0941486,-0.6020936, 0.2679827, 0.6277052, 0.9118799, 0.2649390,-0.1142948,-0.3910188,-0.7567075, 0.2385268, 0.4176706,-0.2840089,-0.8023851,-0.9850367, 0.5689236, 0.6813822, 0.0578987, 0.3411012,-0.2030881,-0.2959395, 0.3694812, 0.4714589, 0.5205819,-0.0392202,-0.3730661,-0.7795904, 1.1190762,-0.5714261, 0.9483470,-0.5898222, 0.8288723, 0.1652144, 0.4387516, 0.5135235,-0.6892472, 0.7729221,-0.1768657, 0.2316501, 0.5165049, 0.2241298,-0.9923080, 0.1321754,-0.7939894,-0.1029924,-0.9263305,-0.3119405, 0.3051222,-0.2266264, 0.6842837,-0.3783613, 0.7884852, 0.9936842, 0.8020934, 1.0669422,-0.5765545, 0.4736932,-0.7587269, 0.6970909,-0.6106077,-0.1026548,-0.7188142,-0.7760441, 0.6919467,-0.9256761, 0.3904195,-1.0109498, 0.6609919, 0.1299439, 0.0535345, 0.4835942, 0.5645927,-0.2416866, 0.2691116,-0.6815022,-0.6500227, 0.3805534, 0.5503081,-0.6392594, 0.4979185,-0.3534735, 1.0838425,-0.4327284, 0.9334228,-0.7034052,-1.0049441,-0.4965715, 0.0243767,-1.1363386,-0.4945527, 0.4971048,-0.8548552,-0.1508061,-0.5706173, 0.3932866, 0.4668097, 0.2107886, 0.4217276,-0.0083443,-0.8055172,-0.9511785,-0.7198202, 0.4232401, 0.6664859,-0.1581854,-0.1610425, 0.5924626, 0.9522119, 0.1897785,-0.7258764,-0.4192835, 0.6967578,-0.4552434,-0.6471894, 0.0742311,-0.5880281, 0.3167135, 0.2035170,-0.2751638, 0.6464362,-0.6082311,-1.0602799,-0.4012187,-0.2321459,-0.7982766,-1.0291030, 0.1033326,-0.7435068,-0.0960534, 0.2132525, 0.9400331,-0.0020742,-0.4518099, 0.3294322, 0.2559182, 0.6511009, 0.7247405,-0.4196739,-0.2532369,-0.5449760, 0.5574192,-0.8022963,-0.1978132, 0.4410440, 0.7136673, 0.0617763,-0.1263867, 0.9013016, 0.4596766, 0.3182091,-0.0985491,-0.9810033, 0.0899333,-0.6179279,-0.4402130, 0.5282354, 0.1969807,-0.1300261, 0.2547159,-0.9696827, 0.5660210, 0.7374597,-0.3565515, 0.5611310, 0.1493912,-0.0014483, 0.6919529,-0.6475629, 0.1924196,-0.0248473,-0.2072694, 0.8825975, 1.0447432, 0.0979711, 0.6051105,-0.2587518, 0.1134412, 0.7785268,-0.6395875, 0.3031092,-0.5500580, 0.8831832,-0.8446703,-0.6945562, 0.4223181,-0.1649671,-0.8420256,-0.5664133,-0.5177987,-0.2870752, 0.6332471, 0.3419929, 0.4831830,-0.6494732,-0.1285311,-0.0766135, 0.4296087, 0.3696338, 0.9354219, 1.1220307, 0.1618330,-0.0189476, 0.6983880, 0.2593783,-0.4333866,-0.8646987,-1.0698257,-0.3671378,-0.2478852, 0.2492532,-0.7860600, 0.4228222,-0.8477988,-0.4743471,-0.1925835,-0.8010124, 0.5220751, 0.6221077,-0.5218384, 0.3974189, 0.5293629,-0.7031324, 0.6136879, 0.4332529,-0.3378242, 0.6375591, 0.4884134,-0.1045810, 0.9997173,-0.2483737, 0.2501407,-0.7219162,-0.5362341,-0.9365011, 0.7028789, 0.1264642,-0.0421165,-0.7990450, 0.5367193, 0.2282854, 0.7216804,-0.6767190,-0.1445975,-0.1316263, 0.9147079,-0.2493879,-0.7406042, 0.5657824,-0.6315724,-0.3738043,-0.1615246, 0.4940359, 0.0501919, 0.5199679, 0.8794935,-0.4284582,-0.1058220,-0.6588351,-0.0157791,-0.8561547,-0.7583890, 0.6465236, 0.6652500,-0.6250927, 0.0126474, 0.3278867, 0.1657658,-0.2126545, 0.9126963, 0.4610370,-0.4669997,-0.7603266, 0.2384202,-0.0215425,-0.1852276, 0.1225406, 0.1212544,-0.4413165, 0.1054765, 0.3830590,-0.7512795, 0.3510212,-0.9450695,-0.8621063, 0.8996826, 0.6993315, 0.6372578,-1.1352771,-0.0355346,-0.8787050,-0.6331227, 0.6024445, 1.0239259,-0.3741365,-0.7268382, 0.0502577, 0.5788809,-0.4804307, 0.2739850,-0.9983681, 0.6233331,-0.2189489, 0.5558982,-0.5013296,-0.8256124,-0.6805296, 0.2715206,-0.1055233,-1.0583671,-0.0827484, 0.1653515,-0.7149710,-1.0671613, 0.0889669,-0.0888322, 0.4217800, 0.6735802,-0.5752086, 0.9236767, 1.1171561, 0.3477498,-0.2813419, 0.7109257,-0.9589791,-0.9662784, 0.2989286,-0.6534663,-0.1090223, 0.7187417,-0.1311930, 0.5233596, 0.4623152,-0.0939044, 0.1245643,-0.3151397,-0.2110137,-0.9307102,-0.9351179, 0.1353368,-0.0939195,-0.7600374,-0.3221604,-0.2907215,-0.0495771,-0.5745031,-0.6637778, 0.8214626,-0.5618462, 0.5646590, 0.7142031, 0.5170279, 1.0115803,-0.5182532,-0.3667796, 0.5722061, 0.7872106, 0.2253478,-0.3734615,-0.8057034, 0.6893178,-0.2278958,-0.2192676, 0.3608968, 0.4153029, 0.7654390,-0.5504591,-0.8444922,-0.9148875,-1.1335325,-0.9321040,-0.6028269,-0.9592213,-0.7553207,-0.5556949,-0.0910242, 1.2440600,-0.2488378,-0.1767102, 0.8484008, 0.1331548,-0.4687693,-0.4413883, 0.3997654, 0.4177254,-0.3905320, 0.5303518,-0.8842290,-0.1953400,-0.8841324, 0.2335667,-0.0075458,-0.6639827, 0.4800733,-0.7763064,-0.2233117, 0.6430773, 0.2136858,-1.0664721,-1.1809126,-0.4772713, 0.3119281,-0.0299032,-0.6755268, 0.4216904,-0.6428427,-0.1047485, 0.7425143, 0.5060298,-0.4003987,-0.1002019, 0.7708581, 0.9634215, 0.6044463,-0.1700370,-0.1093465,-0.5250898, 0.0411190,-0.2611129,-0.0457755,-0.6854849,-0.7516330, 0.2924266,-0.0792078,-0.8446423, 0.4359122,-0.4362066, 0.8009504,-0.6729443,-0.1135981,-0.0414824, 0.2153285,-0.6381754, 0.5600086, 0.3072945, 0.1180349,-0.6535235,-0.4706769,-0.5859541,-0.7297364,-0.5554674, 0.8347537,-0.0746892, 0.3176998,-0.9555512, 0.6781731,-0.8289981,-0.4649871,-0.3196827,-0.2806123, 0.3744951,-0.6002579, 0.2835846,-0.8093989,-0.6216732, 0.6852085,-0.6385602,-0.4193147, 0.1401037,-0.1873977, 0.8705627, 0.5431272, 0.6972252,-0.5401328, 0.8657117,-0.0156054,-0.4879394, 0.6886275, 0.8852851, 0.1835569,-0.6454087,-0.4419894, 0.9108928,-0.8354488,-0.3785847,-0.2021319, 0.6953152,-0.2381236,-0.7325271,-0.3300163,-0.4651441, 0.9733354, 0.1722210,-0.6965013, 0.6516826,-0.2240509, 0.3509517,-0.7529823, 0.7759838,-0.7111200,-0.9253187, 0.5694445,-0.1100165, 0.4492736,-0.1242409, 0.0114157, 0.5613164,-0.7368211, 0.7438560,-0.1891364, 0.7757480,-0.9025202, 0.1177881, 0.3472883,-0.7355675,-0.0403775,-0.3080704,-0.4636289, 0.9897376, 0.4312669,-0.2011527,-0.0434542,-0.6502284, 0.7251865,-0.7453228, 0.9092238,-0.1939163,-0.4724196,-0.5356064, 0.7581403, 0.7676296,-0.4609351, 0.5612484, 0.9711036, 0.4351011, 0.6661229, 0.9922925,-0.7665883, 0.3212689,-0.1533110,-0.3853799,-0.8987664,-0.9682453,-0.6413855, 0.6597975,-0.6056406,-0.2818658,-0.0211800,-0.9653072,-0.4733408, 0.3282488, 0.0003260, 0.5681677,-0.5960174,-0.6573619,-0.5172961, 0.5985917,-0.1216037,-0.4031002, 0.3615754,-0.1568885, 0.5952040,-0.4659673,-0.9278589, 0.8152263,-0.1395027, 0.8559061,-0.2471317,-0.4790541, 0.6214463,-0.9839541,-0.0983397,-0.2540370,-0.6997552,-0.3985690,-0.6716165, 0.9615248,-0.3286524, 0.0333562, 0.7758058, 0.3074304, 0.4276982, 0.0333902,-0.5166796, 0.6616068, 0.8346754, 0.9660966, 0.6243422,-0.5590806, 0.8364826, 0.8095256, 0.3412619,-0.8242906, 0.7491253,-0.0841944,-0.5009957,-0.1769807, 0.1115333, 0.5309578, 0.4841792, 0.8510014, 0.6073913,-0.7717934,-0.2719186,-0.5857659,-0.4201578,-0.1405473, 0.5230795, 0.7712690,-0.1177132, 0.4672112, 0.6279598, 0.6266177,-0.4136822, 0.4919825,-0.0795538, 0.9403369,-0.8924288, 0.8490272,-0.6432698,-0.3465401,-0.8782178,-0.7665376, 0.8850879, 0.2233389,-0.4109175,-0.8092276,-0.2123848,-0.8403981, 0.2138407, 0.4087070, 0.5730232, 0.4222701, 0.9115943,-0.1869936,-0.8885389,-0.4432574,-0.4776630, 0.4469976, 0.0035826,-0.6259868,-0.9616375, 0.2682588, 0.0531720,-0.0199805,-0.7603671, 0.1819887, 0.8130895,-0.7813325,-0.3183820, 0.1934061,-0.7791637, 0.6636441, 0.0079867, 0.5171858, 0.0933162,-0.2952318,-0.0767143, 0.1622279,-0.2089129,-0.4700781,-0.7246965, 0.1124545, 0.5577187,-0.1417124,-0.3481873,-0.2236151,-0.7413137, 0.8219292, 0.5332529,-0.9429025,-0.5390267, 0.1341921,-0.0139608
 0.6743549, 0.9210609,-0.9654800,-0.5584534, 0.6359335,-0.2309474,-0.6639960,-0.9987102, 0.7166592,-0.8211231, 0.5485953,-0.5767766, 0.7305598,-0.0375601,-0.6224512, 0.6194000,-1.0058908, 0.5029163,-0.4000194, 0.4853172,-0.1810839,-0.1875725, 0.4835279, 0.2085401,-0.1753862, 0.1700724,-0.5189708, 0.4009583,-0.3507379, 0.5420359, 0.1334904, 0.6811992,-0.1436344, 0.4187276, 0.3046189, 0.5306387,-0.7632596, 0.7940367,-0.1081246,-0.7770616,-0.6592231,-0.2744740,-0.6506791,-0.7306624,-0.8722240,-0.3511133,-0.1663216, 0.4529750,-0.9881925,-0.9338691, 0.7554835, 0.6769314,-0.1304876, 0.8823654, 0.4809991, 0.4268501,-0.5889707,-0.9769757,-0.3244149,-0.4608122, 0.5418699, 0.6432839, 0.1637770,-0.6630802, 0.6500470, 1.0590373, 0.9648913,-0.0821571,-0.0360215, 0.8266718, 0.9577196, 0.2190026,-0.0058564,-0.6900750,-0.6734142, 0.6942687, 0.1620649, 0.4154090,-0.7036413, 0.8711747,-0.8286502,-0.7768820,-0.6481966,-0.8174998,-0.9820932, 0.3334004, 0.4499588,-0.5418692, 0.4468103,-0.7720638,-0.8195570,-0.4759337, 0.7892372, 1.0214610,-0.2286934,-0.0711484, 0.9671471, 1.0810250, 0.3330782, 0.4023251, 0.1647514, 0.0876706, 0.7807132,-0.5801426, 0.7934395,-0.5585439, 0.6275678,-0.5536702,-0.7734904,-0.0144865, 0.4150219,-0.6116327,-0.3176113, 0.0459278,-0.4685101, 0.3387344,-0.0511749,-0.8466666,-0.6201152,-0.7608842,-0.3432175,-0.0159759,-0.3807595, 0.2410788, 1.2650775,-0.5461383, 0.1507452, 0.7041809, 0.1978502,-0.0602168, 0.2836733, 0.5986735, 0.2484447,-0.3235106, 0.5428233, 0.7456755,-0.3836902, 0.0232387,-0.6877018, 0.1969120, 0.4597167, 0.3952181,-1.0020512, 0.2258556,-0.0254862,-0.8728823,-0.6022180,-0.5637383,-0.3880010,-0.0140801,-0.6466369, 0.7560388,-0.3058435,-0.2335696, 0.1166893, 0.1235392, 0.2345081, 0.4275091, 1.1662764,-0.3666564, 0.2877085,-0.8791689,-0.7615000,-0.5384092, 0.6614808, 0.4890375, 0.2973118, 0.3673676,-0.1235589, 0.6266217, 0.5348638,-0.1153393, 0.5683115,-0.2595591,-0.6697500, 0.2685993,-1.0616556,-0.5417251,-0.8721172,-0.7857183,-0.7032957, 0.2259259, 0.1095730, 0.2900123,-0.5207674,-0.8065947,-0.7046147,-0.3803575, 0.1895172,-0.4459736, 0.3069399,-0.2647062,-1.2191736, 0.0149311, 0.5564151,-0.7714250,-0.2863143, 0.2608285,-0.0359055, 0.7924931,-0.3923444,-0.8549841, 0.1975362, 0.0498669, 0.4414573, 0.0082393,-0.9047241, 0.8434095, 0.3856066, 0.6353585, 0.5450694,-0.0215447,-0.6725009, 0.0649453,-1.0968611, 0.1440253, 0.1991557, 0.3538145,-0.9801441,-0.5701733,-0.0350877, 0.2820002,-0.4759613,-0.5411939,-0.4414617, 0.5007017, 0.6193415,-0.5460911,-0.2492927,-0.4905082,-0.2588798,-0.6082270,-0.7241954,-1.2513872, 0.7919989, 0.8189158,-0.4290450,-0.7169676, 0.0188592,-0.0557570,-0.1059876,-1.1000354,-1.0297875,-0.6660986,-1.3214763,-1.1979827,-1.1296565,-0.3858341, 0.2767938,-0.6172927, 0.6528157,-0.9924968, 0.6306234,-0.1243907,-0.3299200,-0.6686319,-0.1784005, 0.6964312,-0.2704830, 0.4322664, 0.7459435, 0.5619117,-0.5508273, 0.6334762, 0.0688237,-0.8718380, 0.2728529, 0.2373275,-0.1691202,-0.6391312,-0.1785126,-0.7944307,-0.9498489,-0.3430555,-0.4979097,-1.4152792,-0.5127114,-0.6599759,-0.6610451,-0.1983336,-0.2757630,-0.0139405, 0.9019681, 0.7220190,-0.1176646, 0.3357925, 0.2251785,-0.5912773,-0.2899871, 0.2615324,-0.3393421,-0.6701133,-0.6560719, 0.3781861,-0.4336651,-0.9536905,-0.8789394,-0.3230415,-0.7979158,-0.9803507, 0.6078330, 0.1971777,-0.2235984,-0.5954492,-0.7318528, 0.7510222,-0.3751270,-0.0275096,-0.2937742,-0.6562206,-0.8418294,-0.3725382, 0.6441662,-0.9489214,-0.6990190,-0.4820066, 0.5422314, 0.2077062,-0.9738438,-0.2929771,-0.9796520,-0.3320296,-1.0319994,-0.5753237, 0.2978880,-0.8989803,-0.4660203, 0.3268961,-0.7898826,-0.9683726, 0.0575508,-0.0252374,-0.0291382, 0.2323606, 0.8780667, 0.7989968,-0.0906440, 0.0224443, 0.7433574, 0.0396898, 0.0135193,-0.5299094,-0.6669690,-0.2367988,-0.4702573,-1.3588403,-0.8893106,-1.1942192,-0.6032694,-0.1470223,-0.7568430,-1.1268179,-0.5828603, 0.6882816,-0.5426284,-0.0646420, 0.0655772,-0.4741423, 0.5158399, 0.3917965, 0.6551157,-0.4151291, 0.3743282,-0.5941113,-0.8266078,-0.6393856, 0.7146980,-0.4098369,-0.2227471,-1.2718010,-1.2181140,-0.9108769,-1.0885853,-0.3055853, 0.0988070,-0.4692407, 0.5223413, 0.5326823,-0.0575443,-0.4676186,-0.1109307,-0.4376868, 0.1468103, 0.6008881, 0.8981316,-0.5043929, 0.1638506, 0.0111045, 0.3977437, 0.3928338, 0.1567369,-0.7645420,-0.0232575, 0.0742671, 0.5206356,-0.6936012,-0.8371985, 0.1780691,-1.2360571,-0.0556677, 0.6511143, 0.1037792,-0.0199081, 1.0550696, 0.4705152, 0.4508068, 0.6192849, 0.2653334, 0.0150060,-0.9626720,-0.3101747, 0.9989812,-0.5491492, 0.5706208,-0.3248439, 1.0467243, 0.6472390,-0.7957658,-0.1153695, 0.2524774,-0.9719685,-0.3399384,-0.3168127,-0.9580662,-0.3975413,-0.2779327, 0.3626741, 0.0687783, 0.6814402, 0.5292940, 0.1937138,-0.4106268, 0.5116615, 0.9687802, 0.8677530,-0.0258453,-0.5991693, 0.3564321, 0.4536518,-0.2864632,-0.2524403,-0.4061180, 0.3683800, 0.1655609, 0.0975789, 1.0671244, 0.1733286,-0.0590487, 0.7028228, 0.8033463, 0.7749277,-0.5269649, 0.0315956,-0.5889803,-0.8732599,-0.2580754,-0.6648941, 0.4082948, 0.5385643, 1.0605095, 0.7332063,-0.1775413,-0.2714789,-0.3666836, 0.3821362, 0.3876165, 0.5160027, 0.2072021,-0.4387644, 0.4579543, 0.2698598,-0.5363794,-0.5407359, 0.7146976, 0.7733355, 0.2756909,-0.2407267, 0.9405863, 0.2371040, 1.0104361,-0.6145488,-0.3378637, 0.4493092,-0.0054583,-0.0487932, 0.3750957, 1.5604709, 0.0057819, 0.7576388,-0.1145952, 1.1548945, 0.9317692, 0.6340406,-0.7499782, 0.7489099,-0.1889621, 0.3479191, 0.9544031, 0.0482006,-0.6642938,-0.0912568,-0.5836354,-0.5284867, 0.7991392, 0.6350078,-0.3740258,-0.5731810,-0.4938065, 0.0366801, 0.7357874, 0.4802553, 0.5031011,-0.0917089,-0.8786408, 0.1854591, 0.3422485, 0.1265018, 0.3178493, 0.6072817,-0.7362447, 0.8879552, 0.5532764, 1.1242209,-0.7821509, 0.7177124,-0.4243716, 0.4706633, 0.5096596, 0.9891496, 0.3595447,-0.1797053,-0.4646076,-0.0818688, 0.6794277,-0.1224938, 0.1723365, 0.7471470,-0.3433324,-0.5924811, 0.6434859, 0.6231046, 0.5635447, 1.1472092,-0.2618643,-0.2113101,-0.5751245,-0.1136759, 0.6867274,-0.0298242,-0.4555764, 0.0146222,-0.4516335, 0.3242331, 0.3118063, 0.7443807, 0.7684948, 1.0463775, 0.7410877,-0.3870064, 0.9904370, 0.5493031, 0.7913092, 0.7359539,-0.9943677,-0.0386224, 0.0764019,-0.2609810, 0.5481465,-0.4457422, 0.4898964, 0.2442176, 0.5371347, 0.4875884, 1.1552678,-0.1801132, 0.3589675, 0.8957041,-0.3852737,-0.0108694, 0.1051172, 0.4571536,-0.4317848, 1.0928286,-0.4380995, 0.0766185, 0.3472951, 0.0792475,-0.3351902,-0.9691074,-0.4733951, 0.3100075, 0.6509643,-0.0329253, 0.3607285, 0.1572440,-0.5532578,-0.6300721, 0.5043943, 0.2219589,-0.1608963,-0.0929987,-0.7350016, 0.5921880,-0.9599075,-0.8405815, 0.7760566, 0.3397615, 0.7413045, 0.4613483,-0.1299244,-0.5197147, 0.7892132,-0.4968878, 0.1243125, 0.3156253, 0.0558708,-0.1206235,-0.9210377,-0.3123364, 0.7161975,-0.9175135,-0.6159020,-0.0103585,-0.5450116, 0.5920711, 0.2508114,-0.3806268,-0.2206662,-0.8234039,-1.1931740,-0.8081620,-0.1238091,-0.3095167,-0.3910159,-0.0277320,-0.7790749,-0.7764104,-0.6992272,-0.3539804,-0.2904021, 0.3045926, 0.9168566, 0.8591878,-0.3751860,-0.6074906, 0.7982619, 0.3913721,-0.8141917, 0.2055060, 0.0767138,-0.9131955, 0.0313205,-0.8576835,-0.9456846,-0.9394593,-0.1924354,-0.8434526,-1.3707797,-1.7321639,-0.5222768,-0.4447963,-1.5217471,-0.5718956, 0.5839612, 0.4686348,-0.4899457, 0.3836028,-0.8587215, 0.4391787, 0.2662846,-0.2780384, 0.2683920, 0.2904064,-0.3193528,-0.6366543,-0.1054857,-0.5275712, 0.3885979,-0.3513177,-0.9536464,-0.6487184, 0.4084260,-0.3429707,-0.9610228, 0.3775271,-1.1857223,-1.2536749, 0.1654397,-0.5871044, 0.5638460, 0.4210552,-0.3795621, 0.8309726,-0.8829935,-0.4368109, 0.5387926, 0.2650369,-0.8593813,-1.0033792,-0.0231084, 0.1643635, 0.2022215,-0.8131925, 0.9403658, 0.2174330, 0.8694715, 0.4484426,-0.3642225, 0.6072758, 0.0753583,-0.5116140, 0.2938717,-0.4846237,-1.0822112,-0.9039867, 0.9040446, 0.7955154, 0.1321977, 0.9579719,-0.2881206, 0.7304523,-0.6046649,-0.3644695,-0.9304860, 0.9659451, 0.5679436,-0.7602608, 0.4480745,-0.4800003, 0.1785839, 0.5892653, 0.2046902, 0.1957629,-0.4865872, 0.4070199,-0.5119435, 0.2760983,-0.0007223,-0.5325569,-0.3926007,-0.1700999,-0.7718989,-0.0765089,-0.5151084,-0.3325087,-0.2116724,-0.5363551, 0.6165658,-0.2827673, 0.8916277, 0.5420858,-0.9203921,-0.2876321, 0.1854252,-0.8282994, 0.6053430, 0.8151468,-0.5239755,-0.4718818, 0.1733973, 0.7629363,-0.2968871, 0.5943197,-0.5858927,-0.8937535, 0.0432970,-0.8969182, 0.3856525, 0.7828605, 0.1965637, 0.9711473, 0.1181920, 0.7503389,-0.1154045,-0.2645150, 0.8079757,-0.5510914,-0.8051414, 0.9333996, 0.7676601, 0.5044738,-0.6616299,-0.0945698, 0.1880209
-0.7526443, 0.0856839,-0.7424392, 0.7723809,-0.3745689,-0.4005517, 0.9673218, 0.3316098,-0.0150202,-0.9249815, 0.5303327,-0.0309193,-0.5517427,-0.0335030, 0.9276212,-0.5810512,-0.9264331, 0.0857040, 0.8172987,-0.3674675, 0.8082502,-0.1848024,-0.2940213, 0.6739703, 0.9387347,-0.8991463, 0.1659956,-0.0277399, 0.8421710, 0.1149095, 0.7447523,-0.0941541, 0.8700126,-0.6303766,-0.4117346,-0.8023490,-0.9013120,-0.7806154,-0.9708825, 0.2080646, 0.3726514,-0.2059219, 0.4056902,-0.4881943, 0.7201230, 0.3857532,-0.6974820,-0.0678166, 0.7130874, 0.9299347,-0.9595155,-0.2300318, 0.4260469, 0.5487600, 0.1967878,-0.1040628,-0.6664629, 0.1856018, 0.8937513, 0.0928740, 0.1033753, 0.3697412,-0.1564844,-0.0100535, 0.0681650,-0.1048641,-0.6673053,-0.6447934, 0.7940718,-0.5179253, 0.0859678,-0.1472289, 0.9194893, 0.6594683, 0.1934959, 0.9691437, 0.7425154,-0.3343203,-0.6282445,-0.9353743,-0.7664087, 0.5474396,-0.1901092,-0.7549038, 0.9203732, 0.7637101,-0.1539536, 0.2337385, 0.9596110,-0.9681575, 0.4694370,-0.7947713,-0.1361584,-0.2498676, 0.9486496, 0.1834915,-0.3046634, 0.0999452, 0.7134284, 0.9348027,-0.8056826,-0.3020290,-0.0688081,-0.6292214,-0.8298749, 0.2961853, 0.8555512, 0.8838820,-0.2997659, 0.0619383, 0.5154375,-0.5038818,-0.3841286, 0.7531901,-0.0999235, 0.4325803, 0.9074273,-0.1106294,-0.3217364, 0.7338897,-0.4325877, 0.4323343,-0.7417187, 0.7393379, 0.2095526,-0.2508164, 0.3019361,-0.2468143, 0.3666076, 0.4125452, 0.7057005,-0.2335336, 0.2903751, 0.6346723, 0.6895029,-0.6541203, 0.3165172, 0.3023461,-0.4595836,-0.3241400, 0.3677706, 0.0288173,-0.2155257, 0.5377372,-0.8666216, 0.4757245,-0.5383054, 0.5434747,-0.1411495, 1.0330918,-0.5582795, 0.7749654, 0.5030967, 0.5828189,-0.5965502, 0.5894426,-0.5235781,-0.1813323,-0.6630124,-0.4333520,-0.8848210, 0.1145438,-0.9283627,-0.7954241, 0.3511557, 0.7710826,-0.7058612,-0.3681000, 0.2339294,-0.8129257, 0.8632490,-0.2920449, 0.4136290, 0.3877770,-0.1651941, 0.4929237, 1.1088761, 0.3451676,-0.0479491, 0.3804758,-0.2534236,-0.3241150, 0.6118536, 0.0722834,-0.8479166, 0.4220436,-0.1374257, 0.4833193, 0.0291721, 0.7609186, 0.9767148, 0.9100261, 0.1937746,-0.5692948,-0.1667927,-0.2132849, 0.5342618, 0.8471221, 0.0699282, 0.2099103, 0.1910487,-0.0522129, 0.2742914, 0.2147942, 0.0046132,-0.3528479,-0.2246272, 0.3756873, 0.1882454,-0.0893410,-0.0267401, 0.6564378, 0.1361754,-0.8172015, 0.9924539, 0.8792500, 0.0454624,-0.6622286, 0.4612254, 0.1615230, 0.0061595,-0.5964627, 0.2459066, 0.6325314,-0.1639769, 0.7785369, 0.0857552,-0.7493847,-0.2388408,-0.2504124,-0.5769223, 0.9471484,-0.0848874, 0.2226523, 1.0071494,-0.3419730, 1.0560853, 1.0056363, 0.8876676, 0.2362847, 0.3413198,-0.4666685,-0.5524260,-0.7621720, 0.5612142, 0.6107502,-0.7314988,-0.4549666,-0.4231346, 0.4459189,-0.9031130, 0.7128076,-0.4634337,-0.0656124, 0.7901782,-0.1220395,-0.0968847,-0.7709063, 0.4775624,-0.2290826, 1.0231253, 0.2039059, 0.3334054, 0.0207770, 0.9727112, 0.4624670,-0.7760218,-0.1226982,-0.7783347,-0.3316077, 0.1414723, 0.5409749, 0.8542099,-0.0537872, 0.4497097,-0.8803220, 0.4822808, 0.2825331,-0.5048265, 0.8411887, 0.5976322, 0.5171720, 0.2227461,-0.1485793,-0.3569401,-0.8932862, 0.2100701, 0.4245035, 1.0196051, 0.0903096,-0.0133604, 0.9536768, 0.8904999,-0.5750474, 0.0050755,-0.1978612,-0.2232760,-0.2060860, 0.4301455,-0.2815625,-0.4567141, 0.6761269, 1.0369679,-0.3580088, 0.0274602, 0.6707297,-0.2696512, 0.0975313,-0.7564491, 0.4867984, 0.5565866, 0.2532122, 0.1291576, 0.7531934,-0.7243266, 0.9613163, 0.5150372,-0.4761022, 0.1451706,-0.9316552, 0.1079035, 0.3992535, 0.7006150,-0.7318816, 0.5718786, 0.9646910,-0.4655417,-0.1167761, 0.1832058, 0.7021320,-0.5424845,-0.6401643,-0.1321706,-0.3621152,-0.7663026, 0.5122313, 0.4776639, 0.0792000,-0.9298428,-0.4634868,-0.7387264, 0.3142179, 0.2906926, 0.4235117, 0.8300713,-0.3953529, 0.0203835, 0.9087593, 0.8946664, 0.6890695, 0.0049550,-0.3815380,-0.1077439,-0.3053327, 0.1988657,-0.2678210, 0.6035360, 0.4687789, 0.9284879, 0.9281455, 0.2239170,-0.8240442,-0.2736686, 0.7125446,-0.0811929,-0.0859192,-0.4758506,-0.7677885, 0.8440100,-0.2054625, 0.5714811, 0.0693734, 0.7486713, 0.7909112, 0.6618680,-0.1865802,-0.4851387,-0.1417504, 0.1631595,-0.1070925, 1.0942199,-0.3141005, 0.9958384,-0.3601426, 0.4345224, 0.1083100, 0.6352524, 0.0603568, 0.3161110,-0.5192304, 0.8756378,-0.2624218,-0.8462462,-0.3003747, 0.6218588, 0.0588384,-0.2593898,-0.4917989,-0.1483142, 0.6430276,-0.1474640,-0.5271218,-0.1582423, 0.6068641, 0.6718332, 0.2257945, 0.3979944,-0.9460335, 0.8555810, 1.0255731,-0.3127738,-0.1563611, 0.7750069,-0.8239674,-0.3028592, 0.7253020,-0.6053242, 0.7552590, 0.4688791, 0.5954248,-0.6259469,-0.2755555,-0.0846638, 0.6947024, 0.6879944,-0.2630826, 0.4349013, 0.0683326, 0.6310307, 0.8833588,-0.5785789,-0.6417157, 0.7782238,-0.9385402, 0.2270090, 0.8467137,-0.1254215, 0.4357424, 0.6940312, 0.7818370, 0.8885041, 1.0317336,-0.3869149,-0.6534109,-0.3842802,-0.8247317, 0.9684253, 0.8423069,-0.1519800,-0.3118924, 0.8175648, 0.5588116,-0.2634287, 0.6524417, 0.6275404,-0.0849370,-0.0823914, 0.0674905,-0.3616855, 0.9986731, 0.0036970,-0.6552394,-0.5340479, 0.5478008,-0.6009332,-0.3298352, 0.6810979,-0.5520018,-0.8245000,-0.3281980, 0.2404164, 0.9169692, 0.4896544, 0.2827331, 0.1087740,-0.3052819, 0.5712356, 0.4465350,-0.0370392, 0.9165114,-0.2774190, 0.1386735, 0.4352063, 0.8788841, 0.2553442, 0.4003869, 0.6889728,-0.3509514,-0.7795161, 0.0800390,-0.7761673, 0.9265565, 0.8903517,-0.7275147,-0.0376720, 0.6446197,-0.3553094, 0.2805521,-0.6553826,-0.4074625,-0.3677104,-0.9487391,-0.3340089,-0.0408400,-0.3692552,-0.6231687, 0.8986846,-0.8041489, 0.0400049,-0.1296568,-0.7481911,-0.0752331, 0.5023349,-0.7603150,-0.7316980, 0.4003542,-0.1385741,-0.3564215,-0.6275602, 0.5396188, 0.5208985,-0.4016741, 0.1821411, 0.6882570,-0.6157492,-0.6216240,-0.3002078,-0.3736094, 0.1807124,-0.2978803, 0.7525355,-0.6744295,-0.2050742,-0.3566533,-0.0247799,-0.6139224, 0.5029904,-0.8686251, 0.7940449, 0.2698922,-0.2969033, 0.7974463, 0.5954868, 0.4628970, 0.2004089,-0.4279066,-0.4631216,-0.6452295, 0.9624009, 0.8044622, 0.0611097,-0.6386833,-0.3166078, 0.0483642, 0.7309497,-0.5399409,-0.1365594, 0.1427513, 0.5367326,-0.6813362, 0.7387268, 0.5635528,-0.7911569, 0.4947762, 0.8773618,-0.3024479, 1.0197201, 0.9269372,-0.2096107, 0.1524436,-0.1696967,-0.4727183, 0.7450028,-0.6306832, 0.8115168,-0.5932948, 0.7395117, 0.6056824, 1.0730465,-0.6594595,-0.2905355, 0.1826116, 0.7876944, 0.5667502, 0.1643611,-0.3176630,-0.0627870, 0.3417103,-0.4480225, 0.2635633,-0.9157954,-0.7219088,-0.7461230,-0.8188072, 0.8087433, 0.7412983, 0.3309427, 0.5063229,-0.2144354,-0.7275997, 0.5410768, 0.7703755, 0.6126725, 1.0149306,-0.0293018,-0.2160767,-0.2850916,-0.8981775, 0.5503723,-0.1608315,-0.3656050,-0.7240927,-0.4151661,-0.9368271, 0.3222704, 0.5204692,-0.7600028,-0.6484331, 0.2853803,-0.7912345, 0.4375737, 0.3306573, 0.0528589,-0.7937058,-0.0455899, 0.1886322, 0.7380661,-0.1662823,-0.1863497, 0.7986595,-0.8633581,-0.6286532, 0.8596209, 0.9519816, 0.4810807, 0.9359317, 0.1532757, 0.7282822,-0.2743437,-0.9010012,-0.8903289, 0.2677601, 0.4501497,-0.3360996,-0.6189917,-0.4172042,-0.0380818,-0.7100127,-0.7093681,-0.2761041,-0.2491478, 0.5076956,-0.5573248,-0.3895914, 0.3429298, 0.1971995,-0.9293135, 0.7218086,-0.1053670, 0.0811689, 0.8496666, 0.8664108,-0.7238823,-0.1538566,-0.1195231, 0.4626230,-0.9269165, 0.7477600,-0.0428336,-0.5453004,-0.3254576,-0.3872438,-0.3866686, 0.2920456, 0.2520764, 0.7531494,-0.9528371, 0.0661785, 0.2692939, 0.4230862,-0.2107617,-0.6386864,-0.1936367, 0.0082356,-0.2116971,-0.2900243, 0.5995186,-0.0668300, 0.5963919, 0.2280180, 0.5430012, 0.3126848, 0.8702342,-0.5294612,-0.9165235,-0.0109390,-0.2118674,-0.3970529,-0.2590972,-0.0546115,-0.6987845,-0.2709689, 0.0920055,-0.7094887,-0.2047150,-0.3094015, 0.3749917, 0.1443390, 0.4679425,-0.4487738, 0.1549631, 0.0882835,-0.3458914, 0.4495965, 0.5519427, 0.2029130,-0.5107462,-0.5877840,-0.8065126, 0.9647600, 0.4889613, 0.3298046, 0.4518429,-0.8025602,-0.9143082,-0.0763859, 0.7713921,-0.4059675, 0.4705664,-0.4502319,-0.5333453, 0.1192310,-0.1167070, 0.2380941, 0.9863270, 0.6602316,-0.4874022, 0.1995367,-0.6793832,-0.3662248, 0.0946423, 0.7178749,-0.9728912,-0.9226184,-0.1988787,-0.6416274,-0.2614989, 0.1989281,-0.7165547, 0.2900389,-0.7097398, 0.9597028, 0.4964096, 0.5324135,-0.9654961,-0.9776676,-0.4465817, 0.7090352,-0.2237418,-0.8267871, 0.6547320, 0.9291189,-0.8872123, 0.2339186,-0.5533930, 0.9008994, 0.2515989,-0.3129186, 0.6168385,-0.8296560,-0.8047387, 0.7626867,-0.9558389, 0.9969743,-0.2374174,-0.1878370, 0.3901376,-0.9337839, 0.1903611,-0.4708733,-0.4793017,-0.7921608,-0.5647772,-0.6840516
-0.5777227,-0.1368968,-0.2759575, 0.7828404,-0.9041692,-0.5065577,-0.6725030,-0.2806670,-0.9297316, 0.5288378,-0.9207234, 0.6718614, 0.6937031, 0.8481579, 0.4035753,-0.8161463, 0.2785188, 0.7171459,-0.1752137,-0.9915765,-0.0087848,-0.3992959, 0.0204980,-0.3165477, 0.5160220,-0.6685481, 0.8174502, 0.5521965, 0.5374677,-0.6889691, 0.7405217,-0.0031807, 0.2325379,-0.6423016,-0.2035215, 0.8496199,-0.4052603,-0.2496651,-0.8920856, 0.5363457,-0.0722423, 0.8938579, 0.3529897,-0.2968333, 0.9362688,-0.0986623, 0.6567474, 0.1210423,-0.9562849,-0.5154234, 0.1864700, 0.4183759, 0.6384926, 0.3612777,-0.0786936,-0.8424779, 0.6371843,-0.8197775, 0.8967203,-0.9649406,-0.2983473, 0.5151968, 0.5866068,-0.3853829,-0.5024943, 0.2403543,-0.7961561, 0.6970543, 0.6274086, 0.6179715,-0.4187121, 0.9328778,-0.8307557, 0.0681720,-0.6329224,-0.6216124, 0.2805505, 0.3664425,-0.1421800, 0.9752845,-0.1321394,-0.3175994, 0.5927147, 0.7712312,-0.6248361,-0.3351454,-0.9770160,-0.0925283, 0.1280274,-0.5312223,-0.5179838,-0.5531805, 0.6164837,-0.0921256, 0.8620310,-0.8097678,-0.9523974, 0.6708317,-0.5694169,-0.0084630, 0.7319685, 0.3091527, 0.4859528, 0.6369307,-0.2200064, 0.3129544, 0.3758180, 0.1820243, 0.3352288,-0.6881707,-1.0027039, 0.4509023, 0.4313707, 0.8565965,-0.7529563,-0.8694804,-0.3487909, 0.6824258,-0.3398688, 0.4210450,-0.8412491, 0.5717305,-0.6225983,-0.1720497,-0.2380931,-0.9186776, 0.1922186, 0.1631453, 0.1822537,-0.1729435,-0.6227236,-0.1249661,-0.2973269,-0.5163661,-0.3184600,-0.3244874,-0.7169166, 0.9677966,-0.4099182, 0.1417493,-0.5773938, 0.6526758, 0.5608703, 0.7950195,-0.7911896,-0.4256659, 0.6360250,-1.1472311,-0.3568703, 0.0590105,-0.1121536,-0.9331088,-0.6105083, 0.1002441,-0.4235998,-1.2922004, 0.1646775, 0.6603475,-0.2105586, 0.7956329, 0.7718153, 1.0919792,-0.6334161, 0.9635302,-0.1001432, 0.9811050, 0.3613525, 0.0014016,-0.5818381, 0.6893603, 0.9072097, 0.5419840,-0.5173486, 0.6320402,-1.0311672,-0.0984802,-0.0725317, 0.3438051,-0.8914625,-0.0991538, 0.0087584, 0.0967375,-0.2456465,-0.4781374,-0.4724363,-1.1425171, 0.4437172, 0.8380749,-0.2432021,-0.1577926,-0.7377925, 0.9026034,-0.1958191,-0.6146852, 0.1156294, 0.1275099, 0.3918007, 0.5226697,-0.9791274, 0.6297321,-0.9317335,-1.1698605, 0.2844258,-0.9777577,-0.5885663,-0.4324745,-0.7133249, 0.7540802,-0.3523362,-0.9327073, 0.2076693, 0.3604161,-1.1108803, 0.7100760, 0.0459690,-0.5802524, 0.7418068,-0.5385732, 0.3717990, 0.3229877, 0.1285806,-0.1378843, 0.6400596,-0.3625613,-0.9905714, 0.0857754, 0.2477593,-0.0518755,-0.2418901, 0.4821497, 0.5993603,-0.5452299, 0.8714406, 0.1394536,-0.0255385,-0.0111025,-0.2253202, 0.0077640,-0.3354409,-1.3653869,-0.4552522,-0.3609950,-0.0857932, 0.0041261,-0.5644244, 1.2393704, 0.2815061, 0.9381665, 1.3818118,-0.4810930, 0.4362562,-0.7987167,-0.9125148, 0.3997800,-0.6339790,-1.0502871,-0.1784496,-0.2840931, 0.2042988,-0.0397626, 0.1695642, 0.4622311, 0.3024112, 0.0956526, 0.8977110,-0.5877100,-0.0841293,-0.0753151,-0.9353679,-0.6109647,-0.1049775, 0.2462751,-0.8951731,-0.3444690, 0.9222477, 0.8000153, 0.0539398, 0.7498590,-0.5611996,-0.7626590,-0.1213526, 0.7719616, 0.8887504,-0.7192708,-0.3171923, 0.1872392,-0.6566726, 0.5273171, 0.6931259, 0.0688255, 0.9996447, 0.0705084,-0.3697871, 0.6723185,-0.2286677,-0.6817592,-1.3266686,-0.5497858,-0.6768920,-1.1447896,-0.9366838,-0.9376901,-1.0112822, 0.9139231, 0.6360741, 1.1709788, 0.6710077, 0.2281747,-0.9587268,-0.2345922,-0.7985183, 0.8752987,-0.5161097,-0.8356802, 0.2924548, 0.2527728, 0.2965956, 0.3926898, 0.2646363,-0.1455223,-0.1792357, 0.7565448,-0.4523556,-0.3675949,-1.0666391,-1.0486075,-0.6121743, 0.5078405, 0.2813643,-0.6150385,-0.9304839, 0.4188001,-0.3504943, 0.3097064, 0.4388842, 0.6043975,-0.6724872,-0.3083455,-0.2892367,-0.2884865,-0.6988600,-0.0896880, 0.5902558, 0.5901956, 0.9946803, 0.9126913, 0.5252311, 0.0966614, 0.8713130, 1.3720711, 1.2064639,-0.3544277,-0.7647664,-0.3848060, 0.4253247,-0.6535648,-0.2835476,-0.3745451, 0.3608121, 0.3273281,-0.7099441,-0.6356039,-0.9296746,-0.9363577,-0.7309323, 0.7714862,-0.7160986,-0.8537139,-0.3716799,-0.2940209,-0.7707068,-0.2287284,-0.7150099,-0.4170032,-0.4254709, 0.1297010, 0.3576133, 0.7078127, 0.8583237,-0.6174583,-0.7931670,-0.3510777,-0.5648249,-0.6574326, 0.2642982, 0.4604043,-0.2179734,-0.0093015,-1.0356036, 0.0578166, 0.2859852, 0.0608590,-0.4157980,-0.1032213, 0.3382966,-0.5878124,-0.2204071,-0.6257895,-1.6336730,-1.3109845,-0.6557106,-0.2023781,-0.5234694,-0.4310959,-0.4601887, 1.0211544, 0.8372251, 0.0591304, 0.0211068,-1.2074899,-0.8118023, 0.0748375,-0.9954339,-0.9274712,-1.4506240, 0.3947026,-0.2653677,-0.5411384, 0.7913302,-0.7277137, 0.9259165, 0.3614662, 0.8526447,-0.1355350,-0.7645484,-0.9312110,-0.1474139,-0.3223552,-0.6554897,-0.4331743,-0.2159918,-0.1751596, 1.3503474, 1.4712186, 0.5303776,-0.0081018,-1.5557200,-0.0432630,-0.5170525, 0.0099637,-0.9573086,-0.4600587,-1.3048624, 0.0970242, 0.3312721,-0.2755511,-0.0870048,-0.0797940,-0.9501741, 0.2305402, 0.0180156, 0.5947015,-0.6073574,-0.3302735,-0.0875327,-0.5281243,-1.3001130, 0.2113917,-0.5603072, 0.0500748, 0.3925866, 1.4860517,-0.2133637,-0.1872772, 0.3007805,-1.1199541,-1.4508591,-1.5922683,-1.3616812,-1.3175650, 0.3711016,-0.1294632,-0.8696989, 0.4491319, 0.2594589,-0.3428118, 0.5291753,-0.3378485,-0.4530717, 0.3159986,-0.6320588,-0.5084803,-0.6778784, 0.2783589,-1.1011998, 1.1602040, 1.5709883, 0.4037080, 0.4560315, 0.5166578, 0.0458549,-0.3482407,-0.7352364,-0.5481684, 0.3103687, 0.0419659,-0.0041805,-1.3222134, 0.2180549, 0.5181717, 0.3405155, 0.0900022,-0.5177343,-0.8801512, 0.8725623,-0.5644577, 0.4315064, 0.3321335,-0.3226685,-0.1207169, 0.5172641, 0.3621530,-0.2616302,-0.0216784,-0.0936881, 1.6983890, 1.5328872, 0.2401329,-0.7164720,-1.0941828,-0.1693497,-0.0464218, 0.0920128,-0.0737772,-1.0391293, 0.3850053, 0.4843434,-0.5071025,-0.4808606,-0.9891940, 0.6210762,-0.0349415,-0.9107499,-0.9137748, 0.8323445,-0.9452389,-0.8806902,-1.0666195, 0.4283366, 0.1883016,-0.0854304, 0.8391467, 1.6870371, 0.1243154, 0.1723912, 0.7853793, 0.6420497,-0.4308296,-0.3702916, 0.6534953,-1.1394815, 0.1038599,-0.6991094, 0.2563642, 0.3591858, 0.8120000, 0.4861435, 0.0060148,-0.4077170, 0.5474986, 0.3629713,-0.0168994, 0.8236718,-1.0035881,-1.0736250,-0.1939289, 0.2502494,-0.1506426, 1.1792268,-0.4187180, 0.5668706, 0.8214787,-0.8798575,-1.0745595,-0.0192367, 0.2562467, 0.2988104,-0.4955046,-0.1144156, 0.0444620,-0.1681160, 0.9840987,-0.1998008,-0.0252880, 0.4280532, 0.5689431, 0.6162160, 0.6591783, 0.9276306, 0.4578598,-0.7634918,-0.3730517,-0.6740622,-0.6732236, 1.0723499,-0.3316967,-0.1363716,-0.1099593, 0.5668272, 0.0357983, 0.2480926, 0.4576337, 0.0865386, 0.2875443,-0.4447284,-0.3643828, 0.8455123,-0.2943693,-0.5561527, 1.1043851, 1.0117774, 0.6644004, 0.6604420,-0.2537887, 0.9356204, 0.1582200,-0.7427851, 0.9482651, 0.0113050,-0.2826822, 0.7254942,-0.1463628, 0.2295528, 0.1767194, 0.0066936,-0.4529317,-0.1005408, 0.0293829, 0.4766701,-0.3297118,-0.4643214,-0.0745783, 0.6096314, 0.1026411,-0.3936025, 0.0246724, 0.9770922, 0.6779751, 0.8647204,-0.2842356,-0.1678700,-0.3823488, 0.7941517, 0.6865633,-0.9917479, 0.3818234, 0.4244481,-0.8847444, 0.8053971,-0.4368745,-0.8268269, 0.4295914,-0.5451244, 0.2038099, 0.5884341,-0.0604081, 0.0211330,-0.0817294, 1.1059907, 0.4690530, 0.1415256,-0.0239743,-0.1974320,-0.3326777,-0.6624501, 0.3863501,-0.9754156,-0.2264340,-0.9850267,-0.9154485,-0.4869243, 0.2545648,-0.4150771, 0.9324802, 0.5738633,-0.2976091,-1.1244893, 0.3201162,-0.7511669,-1.3114669, 0.0541728,-0.5657533, 0.0417381,-0.0603338, 1.1374283, 0.5130829, 0.1515706, 0.4695752,-0.5267632, 0.2011026, 1.0099439,-0.5452282,-0.2183873,-0.2855449,-0.5838103,-0.5842115, 0.5606965, 0.4817934, 0.9833662, 0.2703197,-1.0022257, 0.0826766, 0.5538323, 0.1790866, 0.8697930, 0.2167009,-1.0138799, 0.7429825,-0.9810223, 0.1030846,-0.9123270,-0.7451936,-0.5877881,-0.9394432,-0.4158586,-1.0782042,-0.2026978, 0.1139433,-0.6685463,-0.3032523, 0.4534286, 0.4250515, 0.4729719,-0.8282436,-0.8082636,-0.8038962, 0.8970355, 0.0666826,-0.9793770, 0.0192149,-0.4154954, 0.9784163, 0.0901011, 0.1847450,-0.9033847, 0.0871362, 0.1750621,-0.0693594, 0.2188940, 0.8024326,-0.3456879,-0.4163990, 0.7844819, 0.4468613, 0.4050408, 0.7827648, 0.4936539,-0.3289269, 0.1533261,-0.2571560, 0.3616771,-0.8303908,-0.0203347,-0.1883579,-0.4425774,-0.3337244, 0.9398338, 0.5140277,-0.5594097,-0.0372693,-0.6276749,-0.5100062, 0.8212506,-0.8578162,-0.7830690,-0.0035567, 0.3604186, 0.2276075, 0.8675558,-0.1720607,-0.9868416,-0.1365572, 0.8720514, 0.3618073,-0.9002484,-0.0936219,-0.1986940,-0.0617091, 0.2426865,-0.9595677, 0.3000629, 0.0888121, 0.7294329,-0.2970856
 0.9241372, 0.0842865, 0.1961736, 0.9305671, 0.1543321,-0.9461487, 0.4143167, 0.6687092, 0.8285531, 0.2940923, 0.1867186,-0.0291170,-0.9586715,-0.4353361,-0.0870470, 0.8783704, 0.7591857,-0.4002090, 0.1230008, 0.6683364,-0.0779583, 0.2626549,-0.9429319,-0.1027145, 0.4897824,-0.2810671,-0.8897990,-0.1756773,-0.1779104, 0.9520741, 0.0115890,-0.4868566, 0.0080101, 0.5878894,-0.7511542,-0.9715280,-0.8753403,-0.7807471, 0.9473750,-0.4797308, 0.8497659, 0.7923075, 0.2820332,-0.3215461, 0.1068129, 0.8246307,-0.9186697,-0.2167761,-0.9182876, 0.2679536,-0.9640158, 0.8521440, 0.6612400,-0.5137468, 0.1896814, 0.4930751,-0.9692758, 0.5857385,-0.0099186, 0.7911606,-0.6380822,-0.8288214, 0.7113585, 0.0789000, 0.1584260, 0.3960291,-0.7963366,-0.4554621,-0.4921245,-0.2009295, 0.1874099, 0.8300559, 0.9692129,-0.3427471,-0.8887555, 0.2131309, 0.2812234, 0.2727150,-0.8273050,-0.4842810, 0.9875744, 0.4571103, 0.8696536,-0.8344938, 0.0878873,-0.2983663, 0.1773719,-0.6188994,-0.9156521,-0.8676257,-0.2969864,-0.8967746, 0.5766885,-0.4246125, 0.8116359, 0.1477184, 0.3710045,-0.4722741, 0.7817480, 0.5030755,-0.4401003,-0.2891387, 0.8852231,-0.1575439, 0.8008400, 0.1772230, 0.7135127, 0.4562738, 0.4339721,-0.7862359, 0.1117632,-0.6521656, 0.4892567, 0.0331918, 0.0083514,-0.5397197,-0.5101290,-0.4807845,-0.9572512,-0.6694655,-0.8523474, 0.1836088,-0.6145344,-0.5782809,-0.2551436, 0.5936641,-0.6138957, 0.7164060,-0.5286175,-0.0198295,-0.4506540, 0.0898508, 0.5830505, 0.7365948, 0.3186264, 0.5629604, 0.6777516,-0.4133875, 0.3490074, 0.8366406,-0.6682750,-0.8098917, 0.6894046, 0.3047073,-0.6485757, 0.3679507, 0.4029017,-0.4127385, 0.3634868,-0.8731902,-0.6659062,-0.6446701,-0.9563211,-0.3664069,-0.9249986,-0.9482194,-1.0213900,-0.3124716,-0.7940081,-0.1714203,-1.1993220, 0.3103756,-0.0961334, 0.4941112, 0.8567030, 0.3516805, 0.7515025, 0.1353575, 0.6695160,-0.8143732,-0.1756511, 0.6530517, 0.4994117, 0.1391816,-0.2080255,-0.3402503, 0.5942891,-0.1112631, 0.4776725, 0.4468206, 0.7301985,-0.3808336, 0.7346350, 0.3657927, 0.2702925,-0.2906306, 0.1818245, 0.4233148, 0.2795850, 0.7105996, 0.2804419,-0.9680397, 0.6613495,-0.4793311, 0.6507162, 0.2450621,-0.0243729, 0.0043294, 0.7663321,-0.1920129,-0.4129091,-0.4466544,-0.2920592,-0.2095506, 0.2378681,-0.7373249, 0.5850991, 0.5996267, 0.6375678,-0.2148202, 0.1499347,-0.0139972,-0.4368592,-0.5749506,-1.0562658, 0.8464034,-0.9345792,-0.7471356, 0.8360870, 0.2170030,-0.0433278, 0.7372765,-0.7784605,-0.5583224, 0.5478040, 0.1987402, 0.4451554, 0.1822418, 0.9099032,-0.2240296, 0.4642119, 0.9496414, 0.8066752, 0.0164956,-0.2759006,-0.6398770, 0.6763616, 0.6847676,-0.6938299,-0.5856124, 0.2725931,-1.1559857, 0.5636795, 0.5324861,-0.8926738, 0.0771006, 0.3106147, 0.3809613, 0.7117595,-0.0084034, 0.8619641, 0.7634911, 0.3365659,-0.7986304, 0.3896334, 0.9039938,-0.0663273,-0.6915372,-0.4997584,-0.9416200,-0.9668187,-0.7406021,-0.3445094, 0.1896697, 0.0668145, 0.8112734, 0.3230387,-0.6015236,-0.1813333, 0.0734756, 0.1713997, 0.6533927, 0.6523846, 0.6047938, 0.0892308,-0.2431484,-0.1847179, 0.1100462, 0.3385122,-0.8171378,-0.3399165,-0.0942677, 0.6085920,-0.6120698,-0.2976863,-0.8804030, 0.3155497,-0.1927315,-0.7991687,-0.0233094, 0.2881118,-0.0924670, 0.7930643, 0.0951663, 0.5305868,-0.9191306,-0.0670595, 0.6791311,-0.5531208, 0.7286064, 0.6772339, 0.3100919,-0.1421081,-0.3846348,-1.0804178,-0.6842080,-0.9548156,-0.2407087, 0.0410478,-0.7641102,-0.0321200, 0.6384049,-0.1551517, 0.1783162,-0.3669407, 1.1701341,-0.3739898, 0.1562978, 0.4584030, 0.5290801,-0.1821060, 0.0558692,-0.4417578, 0.1587584,-0.4932240, 0.0018247,-0.3147825, 0.2447645, 0.1398392, 0.8252497, 0.7405670, 0.5028418,-0.6431047,-0.1612403,-0.1695103,-0.1181017, 0.4024953, 0.3359254, 0.3886961, 0.1888730, 1.0384223,-0.0450861,-0.4644626, 0.2620548, 0.6698348, 0.0134184,-0.7884463, 0.3669796, 0.0315443,-0.6105915,-0.8057064,-0.3388104,-0.2592549, 0.4690599, 0.5968401,-0.3103398, 0.3807377, 0.0737626, 0.3387795, 0.7531735, 0.8717089,-0.1580130,-0.5939395,-0.7216665,-0.5657990,-0.5741628, 0.4842962, 0.9625269, 0.2678683, 1.1122014,-0.2444544,-0.0936676, 0.4351427, 0.6514650, 0.8359917, 0.5568665,-0.1138593, 0.6693368, 0.6611084,-0.6191256, 0.1686815,-0.3848914, 0.3644563,-0.1724054,-0.0497034, 0.1663929,-0.3481845, 0.0466537,-0.9678754, 0.3241870, 0.9228776,-0.5984568, 0.0657027,-0.2641470,-0.2892932, 0.4758340,-0.8494194,-0.0285061, 0.3692990, 0.4887845, 0.5721214,-1.1127766,-0.3907772,-1.0607615,-1.1303477,-1.2038046,-0.4354501, 0.4179731,-0.5466634, 0.5000606, 1.0460744, 0.3377697,-0.1106852,-0.9938244,-0.9303513, 0.3962660,-0.9389470,-0.8603856, 0.3452747, 0.3852443, 0.3057755, 0.6056076, 0.6106168,-0.3673595,-0.9884012,-0.7315035, 0.1540102,-1.0313541,-0.2109449,-1.1532056,-0.4097239, 0.3751191,-0.1949216,-0.4134215,-0.6631904,-0.6370991,-0.3467877, 0.4643461,-0.4738826,-0.3681537, 0.3281687, 0.3053250,-0.8859463, 0.3511653,-1.0233633,-0.6090590,-0.6067162, 0.4032730,-0.9462017,-0.1659643, 0.9765727,-0.2575303,-0.5056642, 0.3080123, 0.3239793, 0.4548369,-0.4982352, 0.2020031,-1.4848862,-1.3393785, 0.2100962, 0.2843514, 0.0176268, 0.1050332, 0.1129810,-0.2206050,-0.3630309, 0.6551646,-0.0234382, 0.6272441,-0.0320837,-0.1173130,-0.1584231, 0.7430583,-0.5240714, 0.6577316, 0.5317208,-0.3494841,-0.6291834,-0.3415982,-0.5343805, 0.6019011,-0.4129234,-1.0807404, 0.1751394, 0.3444046,-0.2793484,-0.6354997,-0.7188343,-0.4678832,-0.2963790,-0.0571855, 0.3274667, 0.7497465,-0.8049953, 0.5424388, 0.9016806, 0.7596362,-0.1030022, 0.8573708,-0.1458623,-0.0136939, 0.6424093, 0.1151162,-0.0379390, 0.7051733,-0.1241873,-0.3663468,-0.4034876,-0.3318490, 0.3709004,-1.0730830, 0.3052001,-1.3612627,-0.8529811,-0.6446724,-0.1679006,-0.1811067,-0.5167925,-0.7559714,-1.0023251,-0.3049298,-0.0847884,-0.9054171, 0.8744229,-0.9228226,-0.8417467,-0.4768287, 0.4152001, 0.2560762, 0.5533363, 0.9954175,-0.6731542,-0.9800585, 0.0187145, 0.9073483,-0.4354162,-0.7793543,-0.9283325,-0.7382919,-1.1785139, 0.0735483, 0.4750020,-0.0127675, 0.5590635, 0.0405672,-0.9893531, 0.0137078,-0.2309340,-0.1978567,-0.7783384,-0.4433330,-0.6786720,-0.5481015,-1.0179225,-0.1191225, 0.4392463, 0.5127449,-0.2147045,-0.2128302,-0.3184108,-0.9249662,-0.2702161, 0.9638989,-0.8410754, 0.2781538, 0.2450684, 0.0741305,-0.3495391,-0.0801791,-0.2334880,-0.6634295, 0.5096411,-0.2217579,-0.9651320,-0.8004948, 0.4694760,-0.7398181,-0.4634932,-0.2619653, 0.1708374,-0.0907401, 0.4169591,-0.5764434,-0.5653161,-0.0073626, 0.0150660, 0.2386497, 0.5733652,-0.5184344, 0.0059410,-0.0861736,-0.7309842,-0.2430306,-0.9513088,-1.2045251,-0.7656707, 0.0066452,-0.8329121,-0.1421727,-0.7552554, 0.5050790, 0.2665245, 0.1987550, 0.7179075,-0.5296812,-0.4111504, 0.6562934,-0.4663224, 0.2678811, 0.0230879, 0.1196562, 0.1768313, 0.8145140,-0.6917269,-0.2873132,-0.8999111, 0.6002490, 0.8641177,-0.1814487, 0.3044091, 0.2730513, 0.1493095, 0.0909004, 0.1584589, 0.2635869,-0.3067415, 0.3375259, 0.4690767,-0.1471490,-0.1649564,-1.0925726, 0.1232604,-0.5511902, 0.3401105, 0.3910699, 0.3155778,-0.5730201, 0.9403479, 0.4018746,-0.9967366, 0.2293440, 0.2837010, 0.5081700,-0.9576081,-0.0480746,-0.5040488, 0.3236676,-0.1096682,-0.3828121,-0.8824945, 0.5158918, 0.8889737, 0.1160933,-1.1632555, 0.5559719,-0.1872935,-0.1725902,-0.4780033, 0.0519803,-0.3411400,-0.3191063,-0.9882599, 0.1449129, 0.7030695, 0.8422250, 0.2979487,-0.3060925,-0.9344198,-0.8641499, 0.9000986,-0.4136775, 0.2834234, 0.0625558,-0.0615059, 0.3051664, 0.6360917,-0.7775828, 0.8653130, 1.1229186,-0.7621490, 0.1322026,-0.2055623,-0.6444828, 0.6670463, 0.8111679,-0.8594853, 0.8789404,-0.6110388,-0.4035555,-0.0240895,-0.9903840,-0.8367803,-0.9578261,-0.8441641, 0.6939093, 0.7131543, 0.2470139,-0.8990176,-0.9159408, 0.3255375, 0.5841109, 0.5575228,-0.5493191,-0.5150993, 0.3720146, 0.2836093, 0.1416982, 0.9890874,-0.7303676, 0.7751888,-0.6427525,-0.2794494,-0.2194138,-0.4283469,-0.8704697,-0.9508131, 0.7777335, 0.1827252,-0.6241944,-0.5200948,-0.5703261,-0.9897786, 0.6836838,-0.0891646,-0.4437094,-0.5373989, 0.0448442,-0.8195818,-0.6538282, 0.7795705, 0.6279007,-0.2177383,-0.9488468, 0.4619732,-0.8175977,-0.2358660, 0.2470960, 0.6799169, 0.5716790, 0.1548665, 0.5189095,-0.2621360,-0.1161975,-0.7266315,-0.8452754,-0.9684809,-0.8354001,-0.8446513,-0.4220441, 0.8299615, 0.2920864,-0.1969817,-0.6350391, 0.2785105,-0.3941626,-0.3338201,-0.7717923,-0.7457311, 0.7300491,-0.4029557, 0.1681692,-0.5932250,-0.1619138,-0.8514548, 0.6150583, 0.6031816, 0.7435186, 0.4479597, 0.7092193, 0.4369161,-0.1740110, 0.1026792,-0.8613513,-0.6579288,-0.2608447, 0.4359776,-0.8898179,-0.8887184, 0.1454392,-0.9453074,-0.7495951, 0.2648321,-0.8672696
 0.1946458,-0.6645270,-0.1350217, 0.9855653, 0.2058293,-0.8798746, 0.0549447, 0.1585837,-0.9031515, 0.1327024, 0.9801325,-0.0942421,-0.4243530,-0.5175158,-0.0007388, 0.1984636, 0.0471043, 0.0022536, 0.0578060, 0.3805522, 0.9417689, 0.2535683,-0.4536515, 0.3849741,-0.6158149,-0.4030271,-0.1634516,-0.1177958,-0.8353963,-0.2060968, 0.4517679, 0.2156931,-0.7058063,-0.4046070,-0.1555408, 0.8640548,-0.2143921,-0.2989324,-0.4543126,-0.2099079, 0.8834936, 0.0356247, 0.8598927,-0.1364405,-0.3984602,-0.0237946, 0.9629114, 0.0747321, 0.6924728, 0.6287741,-0.0206788,-0.5399036, 0.4977871,-0.7896697, 0.1453780,-0.5656347, 0.6684722,-0.2054218,-0.4301000, 0.3713793, 0.5824914,-0.0139555,-0.3519314,-0.2226477,-0.4999781, 0.5138947,-0.9168018, 0.9136989, 0.8817430, 0.7326241, 0.4589724,-0.8407958,-0.3809189,-0.0532903,-0.5118022, 0.9396785,-0.9863739,-0.5851714,-0.7650023,-0.6747664, 0.5898789, 0.1928203,-0.6659333, 0.7115813, 0.3591134,-0.7485509,-0.7380428, 0.0701716, 0.1867431,-0.5877579, 0.3197031,-0.1735909, 0.8957031,-0.2841717, 0.6557100,-0.7082049,-0.1121598, 0.3694400,-0.6702994, 0.5310619, 0.6260491,-0.5417990, 0.2183600,-0.1143139, 0.4937380,-0.9110984, 0.6410876, 0.7161055,-0.3736609,-0.1329607, 0.7206531, 0.8096484,-0.2463118, 0.2215067, 0.8174864, 0.3200430, 0.1821816, 0.8340576, 0.7185186,-0.7307919, 0.5399947, 0.1354586, 0.3416332, 0.6829383, 0.4137557,-0.9570570, 0.1441848, 0.5555005,-0.9034967,-0.6545321, 0.6381169, 0.1412002, 0.6382262, 0.2114796,-0.0924436, 0.3776663,-0.5030071,-0.6299110,-0.1962926, 0.1414091,-0.1863928,-0.5498068,-0.5317624,-0.6916082,-0.4780938,-0.3620732,-0.3439201,-0.0162498,-0.4113707, 0.4253913,-0.7164448,-0.8103583, 0.1153709,-0.6551507, 0.1889091,-0.3754532, 0.5592340, 0.0917800,-0.0956930,-0.4666797,-0.4871446,-0.1269757,-0.5360632, 1.0048150, 0.5508340,-0.6849688,-0.3705430, 0.9091702, 0.8565767,-0.7407766,-0.8386868, 0.5034733, 0.7735439, 0.7529463, 0.2142151, 0.4042817, 0.2403327, 0.1292171, 0.2289854, 1.0234213,-0.3030028, 0.7183350, 0.0932783,-0.1741042, 0.1292932,-0.2021718, 0.3580642, 0.3794084, 0.6839277, 0.5179487, 0.4068828,-0.3404497, 0.7543904, 0.6462845,-0.1543100, 0.3951139,-0.0958187, 0.6910576, 0.5309361, 0.5020296,-0.5893091, 0.0243525,-0.7088370, 0.5766469,-0.3432099, 0.6258924, 0.5822997, 0.2805088,-0.3762897, 0.0181472, 0.6636291, 0.1476508, 0.3345278, 0.8566602,-0.1391112, 0.0128045, 0.2623936,-0.6609288, 0.3511205, 0.6147566,-0.5304412, 0.0895427,-0.3821033, 0.3189823, 0.1928634,-0.4841350,-0.7234434,-0.3344798, 0.4359188, 0.9816346,-0.4040980,-0.0035589,-0.0913476,-0.2370235,-0.3895347, 0.7666558, 0.5797678, 0.4060385, 0.4005815,-0.4326785,-0.1747264, 1.2415483,-0.2735129, 0.9811083, 0.7931863,-0.2714050, 0.7689592, 0.5249820,-0.1290692,-0.6009699, 0.5068709, 0.2500163, 0.6666859,-0.4625261, 0.2788128,-0.0682789, 0.8317965,-0.5711611, 0.0820536,-0.8311460, 0.4235156, 0.3421362,-0.5977004,-0.8722723,-0.1875273,-0.7006893, 0.1798505,-0.3382199,-0.4014603,-0.5471048, 0.1128923,-1.0402711,-0.4608700, 0.0505399,-1.1105008,-0.9868854,-0.0555937, 1.1180757,-0.4502461, 0.0252970,-0.6536151,-0.7436932,-0.7953655, 0.2260576, 0.5320857, 0.4731920, 0.4204934, 0.4628639,-0.6578568, 0.4357853,-0.8056931, 0.4247091,-0.0791651,-0.0743892,-0.7504124, 0.0345606, 0.0427892,-0.9032423,-0.1390824,-0.6016933,-0.4424313,-0.5538351,-1.0161267,-0.7048444, 0.0550615,-0.0664253,-0.6494355, 0.7525754,-0.2155056,-0.6508654, 0.3789867, 0.2235541, 0.5737415,-1.1996179, 0.1942003,-0.3076138, 0.1157930,-1.3232460,-0.4860222,-0.8638658,-0.2957408,-0.1889828,-0.6194281,-0.7478376,-0.8606235,-0.4542999,-0.8530841,-0.6539460,-0.6147220,-0.6487578,-0.3072893, 0.1762067, 0.1355756, 0.6683770, 0.9738116, 0.8644190,-0.4503997, 0.6704051,-0.7386082,-0.4776569,-0.9046134, 0.0898840,-0.0214586,-1.0522676,-0.3903432,-0.3205402,-0.8313635, 0.0310254,-0.0443671, 0.8323894,-0.4439993, 0.6075103, 0.1010945, 0.2723835,-0.1117550,-0.9773254,-0.7416545,-1.3714318,-1.2718079,-0.5938651, 0.1350398, 0.8347544, 0.5460567, 0.2482931,-0.5008030, 0.8185195,-0.8193664, 0.3918277,-0.5059452,-0.8389630,-0.4507553,-0.3811927,-1.2401072, 0.3351479,-0.1123001, 0.8516906, 0.2181968, 0.1869778, 0.9407842,-0.6358644, 0.5758192,-0.7091302,-0.1485705,-0.0520458,-0.3428026, 0.3884586,-1.1382942,-0.3104628,-1.0300491, 0.0923690,-0.4727094, 0.0045341, 0.4754339, 0.2829228,-0.0705054,-0.4277371,-1.0063347,-1.0913157, 0.5165126,-0.1187701,-0.0697720, 0.8557753,-0.3609325, 0.7488120, 1.1622854, 0.1791453, 0.9363341, 0.7824796,-0.6542366, 0.1466569,-1.1020021,-0.8639440, 0.8107494,-0.1247023,-0.0864126, 0.5390396,-1.0039429,-0.0356904, 0.0895234,-0.4928530, 0.7372850, 0.7304833, 0.3536135, 0.7853132,-1.1218596, 0.4905534,-0.0165517,-1.0385289,-0.8735826,-0.5755194,-0.2356610, 0.2998245, 0.9147881, 0.0795429, 1.1058436,-0.7264849,-0.7204571,-0.1075518,-0.1050957,-0.0237976, 0.1306765,-0.0409973, 0.1961313,-0.6260545, 0.0611797, 0.1680832,-0.3282394,-0.1062841,-0.5458109, 0.4985471, 0.4773291,-0.2052709,-0.5876567,-1.4148339,-1.1001181,-1.3827464,-0.2458600,-1.4402111, 0.5283249,-0.3877997, 1.2465055, 0.8027162, 0.3236212,-0.4555476, 0.1643249, 0.0389338, 0.4777461, 0.8482711,-0.0349055,-0.2394891, 0.4249566, 0.2955591,-0.4918407, 0.0907103, 0.3467269, 0.6444082, 0.0952296, 0.0645500, 0.5437640, 0.7069519,-0.4630796,-0.1712957,-1.1078596,-0.7507613,-1.2666368,-2.3093993,-1.7969422,-2.3660931,-1.9162912,-1.5238411,-0.5646865,-0.8658452, 0.1382844,-0.4042541, 0.3692014,-0.2289405, 0.0384299, 0.5201738, 0.5616629,-0.4976510, 0.7216195,-0.3994013, 0.9763439,-0.1644498,-0.4191146, 0.8881038,-0.1038478, 0.0940263, 0.4295244, 0.0654248,-0.6326086,-1.6371835,-1.1417544,-1.2843948,-1.2407610,-1.2536572,-2.3384318,-1.9456759,-1.6265994,-1.0533656,-0.0060493, 0.1616650,-0.4684526, 1.4639851,-0.1721625, 1.3645680,-0.3520106, 0.4164675,-0.1512012,-0.2404936,-1.0153462,-0.0626242,-0.3549701,-0.4502206,-0.0767225,-0.5526579, 0.8971327,-0.6869130, 0.1068732,-0.4501839,-0.6347616,-1.0915359,-0.5138785,-1.7165128,-1.0372630,-0.7341838,-1.1517271,-1.5494897, 0.1179024,-0.0006364, 0.3515043,-0.2301124, 1.2705990, 0.4155677, 0.5172417, 0.4868627, 0.4740019,-0.4882033,-0.5105986, 0.2937287,-0.4942578, 0.2393290,-0.3114478,-0.5572299, 0.6228740, 0.6172201,-0.5544506, 0.0204154, 0.1809668,-0.7950623, 0.2714225,-0.5874147, 0.1241364,-0.0703352, 0.3792965, 0.3556402,-1.0565087,-0.4976046, 0.4117630,-0.3421020, 0.8996093,-0.5039390,-0.0353255, 0.1263106,-0.0464458, 0.0756626, 0.1694662, 0.0152351, 0.2351865,-0.4304229, 0.9015925, 0.2260531, 0.3304006,-0.2959638, 0.1644551,-0.2659807, 0.8510146, 0.3159798,-0.6026858, 0.7187299, 0.8558163,-0.3521188, 0.6706260, 0.4509253,-0.6630100, 0.3515643,-0.3149848, 0.1168107, 0.8292721,-0.0787691,-0.6139368,-0.1489026,-0.9284032,-0.8574494, 0.3700000,-0.0419822,-0.1539147,-0.9315882,-0.8805864,-0.2589483, 0.9825173,-0.4117321, 0.3216480, 0.8399255,-0.2556931, 0.1289459, 0.7406765, 0.9787324,-0.1798948, 1.1735217,-0.1701878, 0.1861322, 0.1266332, 0.7077222, 0.4630418,-0.5834171, 0.9475100, 0.9245886,-0.0690359, 0.1568061, 0.6753799, 0.3327710, 0.5270422, 0.8449137, 0.0253060, 0.6582811,-0.8490072, 0.5333547,-0.5527647,-0.1376205,-0.2682414,-0.1603076,-0.2422145, 0.5935212, 1.2349852, 0.0104724, 0.4343866, 0.0168758, 0.9521686, 0.3260644, 0.1005107, 0.1385019, 0.7130944,-0.3895224,-0.3981008, 0.6448505,-0.5753397,-0.1042931, 0.8605561,-0.0275347,-0.0327285,-0.4623425,-0.3532148,-0.6254224, 0.9579151,-0.3057070, 0.6071991,-0.3192735, 0.8975850, 1.2524173, 1.4452655, 0.9435457, 0.8534158, 0.3126738, 0.5412447, 0.0757869, 0.1389589, 0.8166426,-0.5361974,-0.2374918, 0.1001260, 0.1801109,-0.6587195, 0.7995055,-0.8495687, 0.5828358, 0.0102840,-0.0234406,-0.5145750, 0.7068642,-0.8785127,-0.4514976, 0.7505757,-0.8802963,-0.7214489, 0.6876085,-0.8835239, 0.3311959, 0.8105771, 1.0882870,-0.2594970, 0.0743737, 0.6624163, 0.5240794, 0.1414229, 0.1333829,-0.0774974,-0.7760641, 0.4280117,-0.0503503, 0.7575662, 0.9036642, 0.6325729, 0.0665014,-0.2214806,-0.7256810,-0.6342269, 0.6246128, 0.2241117, 0.7045592,-0.1447061, 0.7595634,-0.0845229, 0.2028148,-0.5880420,-0.7945842,-0.2122416, 0.1872781, 0.5955723,-0.8915478, 0.7807701,-0.2577023,-0.7882805,-0.4686600, 0.6078074, 0.0612408,-0.4420636,-0.0616310, 0.4519086, 0.2831225,-0.8920497, 0.3008269,-0.1696037,-0.7323830,-0.1879106,-0.6875644, 0.2808776, 0.3657122,-0.5415495,-0.6849055,-0.1081126, 0.7064531,-0.7499727, 0.0826648, 0.3422445,-0.6148353, 0.9745307,-0.1910643,-0.4271211, 0.6612740,-0.6864760, 0.4489861, 0.6544256,-0.2476155, 0.7956211,-0.0987270,-0.2843267,-0.0860245,-0.8298817,-0.3300431,-0.7640577, 0.2912897,-0.4267400, 0.5920749
 0.4341456,-0.2879950,-1.0035490,-0.2414284, 0.1426439, 0.2841319,-0.5490023,-0.4598077, 0.2684070,-0.0478095, 0.3034764,-0.1435053,-0.0831758,-0.5640461, 0.4249399, 0.1272826,-0.3835503,-0.2607437, 0.7386954,-0.1556935, 0.6538643,-0.7944178,-0.6308566, 0.8661466,-0.3411036,-0.5755088, 0.8405863,-0.2751923,-0.5831876, 0.8928909, 0.4851905, 0.0234156, 0.4716905,-0.4428831, 0.8138968,-0.6008078, 0.3734019, 0.4439805,-0.1468577, 1.0066635,-0.5771531,-0.9061404, 0.8047770, 0.6998095,-0.6638426,-0.3347447,-0.6522971, 0.1976987,-0.6796756, 0.0533741,-0.1070981, 0.9462268, 0.3962742,-0.7555123,-0.4003603,-0.3770768, 0.2136975, 0.2921736, 0.9645983,-0.3069701, 0.4005445,-0.1147891,-0.6476544, 0.0678558, 0.3636175,-0.7914156, 0.3765158, 0.1283258, 0.4869202,-0.6334418, 0.6356302,-0.2638602, 0.7008186, 0.8300114, 1.0950623, 0.5737598, 0.6898909, 0.8346457, 0.6595263,-0.5118478, 0.7054784, 0.5209794,-0.7857382,-0.0243584, 0.6037835,-0.2183760, 0.2606236,-0.2176403, 0.4383313, 0.6053072, 0.8423408, 0.8472234, 0.2907960, 1.1692246, 0.8237820, 0.8331235,-0.1621497, 1.0478391, 0.4199409,-0.0769436, 1.0874427,-0.0719338, 0.4545771, 0.4136690, 0.4031428,-0.4893477,-0.4894833,-0.6759305,-0.5541967,-0.6719186,-0.1722181,-0.4754310,-0.5818023,-0.2660836,-0.2151579,-0.3278133,-0.3458289, 0.1292112, 0.5848389, 0.7058580,-0.5071427, 0.6256439, 0.1677842, 0.1459123,-0.0283085, 0.6760022,-0.9770573, 0.9094732,-0.5158816,-0.6025573,-0.0564295, 0.3542309,-0.5422508, 0.4421809,-0.2974495,-0.9353769, 0.2263951, 0.4932284, 0.8642312,-0.0782542, 0.0568787,-0.7967073, 0.8420550, 0.5295675, 0.1103103, 0.9266757, 0.5258026,-0.0180733,-0.2078525, 0.6669095,-0.4025494, 0.8238494,-0.1627070,-0.4451120,-0.2919276,-0.1384076, 0.2180777,-0.3130757, 0.4727437, 0.0767393, 0.3297697, 0.2554263, 0.4727916,-0.4582640, 0.4629551, 0.4023245, 0.7425344, 0.3839766,-0.2374193,-0.5355090, 0.6193453,-0.3588658,-0.6787184,-0.6227853,-0.4416942,-0.2546184, 0.2733764, 0.8625414,-0.3386268, 0.5423836,-0.7052120, 0.2573782,-0.5595916,-0.0275685, 0.3107226,-0.4213348,-0.1817838, 0.1576660,-1.3299031, 0.4069322, 0.6393781,-0.8060637, 0.7962951,-0.5120195, 0.9941691, 0.7804735,-0.3199459,-0.9473990, 0.8137701,-0.7238546, 0.6517833,-0.0042686,-0.7787998,-0.0157683, 0.2933539, 0.5187840,-0.6862821,-0.2780232,-0.9339340,-0.2205105,-0.8105566,-0.7726086, 0.0956982,-0.0207927,-0.3374307,-0.4495670,-0.1942660,-0.7788602,-0.5796431, 0.1595777,-0.8589175,-0.9013708,-0.2959973,-0.8823931, 0.1094692, 0.5479201, 0.1492804,-0.5538860,-1.0406706,-1.0135151, 0.4735927,-0.8454469,-0.6851795, 0.5793357,-0.7878582,-0.0608480,-0.9409152,-1.0284667, 0.3344375,-0.2533424,-0.4609310,-0.6282357,-0.7092753,-1.2003704,-0.1226944, 0.2030283,-0.9896718,-0.6160897,-0.7531914,-0.4341883,-0.3330437,-0.6656424, 0.1214146,-0.1259864, 0.4194218,-0.5267229,-0.3493602,-0.3224305, 0.3974048, 0.5682179,-0.7748673,-0.6190360, 0.0263746, 0.2509477,-0.4677317, 0.4753804,-0.2011522,-0.5031863,-0.3917088,-1.2455609,-0.6287327, 0.0744004,-0.9492561,-0.3315643,-0.2375669,-0.4742999,-0.4462600,-0.5186966, 0.1101054, 0.1006919, 0.0163120,-0.8969811, 0.2469205, 0.1099968, 0.2910420, 0.4738713,-0.5048294,-0.0681764, 0.4428311,-0.1599832, 0.8231989,-0.4615047,-0.3973266,-0.5863394,-0.1687428,-0.8298205,-0.8879932,-0.6196081,-1.0532225,-0.9073476,-0.5207166,-1.0986149,-1.0181133, 0.8859692,-0.2712857, 0.3965249,-0.0096154,-0.4632632,-0.0364863,-0.7739532,-0.1850492, 0.8780950, 0.6051391,-0.3671155, 0.6747803,-0.4917160, 0.0416120,-0.5343205,-0.3262722, 0.9360061,-0.0624783, 1.5040944, 1.1431739,-0.7327295, 0.3238781,-0.3267653,-0.8377135,-0.8489947, 0.0918813, 0.8570716,-0.5792403,-0.4616726, 1.2182756,-0.7932859,-0.5800737,-0.0803327, 0.1189135,-0.3360218,-0.7480889, 0.8782239,-0.1095559,-0.7282845, 0.8821716, 1.0109806,-0.1217998, 0.2638445, 0.5599438, 0.8288616, 0.7053155, 0.6593282, 0.2653872, 0.4282349, 0.3560139, 0.2604792, 0.0904103, 0.2693535,-1.0989727, 0.3782274,-0.5145032,-0.0244467, 1.1500602, 0.5161043,-0.4494095, 0.8325657, 0.9492642, 0.5146812, 0.2820025,-0.8780171, 0.1157741, 0.0575944,-0.5994317,-0.2346040, 0.7964061, 0.4911072, 0.9429146, 0.8881218, 1.0005926, 0.1731582,-0.8900289,-0.7092384,-0.7602174,-0.5563777, 0.0480427, 0.3919254,-0.8433544, 1.2272687,-0.2877282, 0.9013925, 0.6612280,-0.1140526,-0.1585844, 0.6073602, 0.1413611, 0.5440368, 0.1269732,-0.3537325, 0.5876764, 0.0927561,-0.5609317, 0.8681891, 0.2500040, 0.8495998, 0.6542114, 0.6457972, 0.5579468,-1.3776516,-0.3501206, 0.0412414,-0.6397497,-0.3398972, 0.1699077,-0.5837682, 0.4782227, 0.6390638, 0.8475362, 0.1298915, 0.5432596,-0.1115047, 0.4517913,-0.9723917,-0.4520566, 0.4944068, 0.1789252,-0.3465279,-1.0277405,-0.0711753, 0.5898463,-0.1651505,-0.0933151,-0.0156598, 0.0252111, 0.7116561,-0.0301013,-0.2874802, 0.0501365,-0.7350263,-0.0112944,-0.0877021,-0.9156198,-0.2906650, 0.7060969, 1.0299084, 1.0139175, 0.7088377, 0.3326313,-0.5645168,-0.4501845,-0.5566473,-0.0067080,-0.0650295,-0.2088084, 0.3045843,-0.0743407, 0.3997952,-0.2805356, 0.3363616,-0.5007587, 0.4835440, 0.3850266,-0.0748787,-0.9845403,-1.2410563,-0.7611753,-0.5503259,-0.9662476,-0.3181214, 0.9215205, 1.1844364,-0.2627451, 1.0866087, 0.4643070,-0.0834864, 0.3483836,-0.1349323, 0.5326897,-0.4790746, 0.3046624,-0.4504189,-0.3710822, 0.6015001, 0.5401748,-0.8175618,-0.6787098,-0.0811626,-1.0115735,-0.0101091, 0.9763872,-0.4542961,-0.7350026,-0.8626151,-1.2083209,-1.2130858,-0.3234929, 0.0871169,-0.5093016, 0.5642780,-0.0631597, 0.6737017,-0.0996498, 1.1780910, 0.7348587,-0.9491879,-0.3594512,-0.8022086,-0.5906369,-0.6547384, 0.6677418, 1.0494547, 0.9103470,-0.0863912, 0.7281587,-0.7903289, 0.8309366,-0.4595476, 0.9313323, 0.9906440, 0.5983220,-0.8713099,-0.8384814,-0.5933344, 0.1312291, 0.8332789,-0.3165897, 0.4557352, 0.3977311,-0.2866476,-0.3294462, 0.0828908, 0.3777423, 0.2120287, 0.3393112, 0.4606360, 0.9408019,-0.1850418, 0.1904443,-0.0130343, 0.9076729, 0.7757140, 0.4529172,-0.6300716, 0.6585786, 0.7047569,-0.0988108, 0.3931465, 0.1655587,-0.5747561, 0.9030823, 0.0016341,-0.0147412, 0.8465131, 0.9918061, 0.4395062, 0.5399109,-0.2349999, 0.7834262,-1.0340821, 0.5865862,-0.9755682, 0.0421861, 0.7218407, 0.5947502, 0.0364122,-0.9486122,-0.7568446, 0.0741338, 0.1807386, 0.0290226, 0.9139092, 0.1159234, 1.2555317, 0.0042363, 1.4616884, 1.4591003, 1.4520105, 1.0608715, 1.3103020,-0.3350022,-0.2625384,-0.5916558,-0.3643912,-0.8728653,-0.1013136,-0.8691342, 0.3039017, 0.6434520, 0.8129492,-0.8434931,-0.0783146, 0.1045054, 0.8514573, 0.8823530, 0.9641061,-0.4247247,-1.0138119, 0.6835164,-0.2056329,-0.7581163, 0.9039942, 0.8778864, 1.1414515, 0.4733649, 0.5181684, 0.0265874, 0.5497882, 1.1909934,-0.3014142,-0.2860863, 0.3604327,-0.1414698,-1.1827792,-0.4668974, 0.2212652,-0.0922074, 0.1647792,-0.3139251,-0.6729528, 0.6588232,-0.8131874, 0.7349194,-0.8936341,-0.1318650,-0.5229902,-0.2308275,-0.0132761,-0.2972678, 0.6948762,-0.0811576, 0.0527054,-0.2090587,-0.4180740, 0.8300587, 0.8087081,-0.4340612,-0.1051172,-0.2650224, 0.1189999,-0.2942901, 0.3765636,-0.2935482, 0.8082349, 0.0885080,-0.6562334,-0.3374294,-0.5532756,-0.4625899, 0.2723311, 0.0950984,-0.9447966,-0.1668933,-0.8278674,-0.6446638, 0.5776104,-0.9120636, 0.2277095, 0.5337922, 0.1716622,-0.6458026, 0.5744804,-0.8458442,-0.9976509,-0.2578761, 0.4439122,-0.6201276,-0.0706490,-0.0371619,-0.8997820,-0.6581377, 0.6119258, 0.7582907,-0.0629688,-0.6759704,-0.6587855, 0.0431067,-0.1952133,-0.7192899,-0.8253641, 0.1487542, 0.0161716, 0.9347482, 0.1069874,-1.0324385,-0.8978001,-0.1571937,-0.8681160,-0.4522983,-0.8503429, 0.0268695,-0.8652714,-0.4627996,-0.1937690,-1.0692748,-0.0936897, 0.4407398,-1.1584480, 0.6665666,-0.0462403, 0.7729423, 0.4440367,-0.5782987, 0.3546737,-0.4607383, 0.2530462, 0.7062600,-0.0862273,-0.6005917,-0.5127650,-0.8102154, 0.7676570, 0.5390220, 0.4132690,-0.5746677, 0.4711850,-0.7428289,-0.7474426, 0.5755041, 0.6887616,-0.4776921, 0.4093355,-0.6164617,-0.4065317,-0.0871879, 0.8036090,-0.4905118,-0.8445941,-0.3053318, 0.8100196, 0.8703342, 0.9302470, 0.6014296,-0.0011305, 0.3542576, 0.9148287, 0.6461301,-0.7607891, 0.7576072, 0.3125632, 0.4795478, 0.4320002, 0.5793411, 0.4592763,-0.4284615,-0.7680162,-1.0406150,-0.2517915, 0.7371126, 0.6737026,-0.3146783, 0.0006404,-0.4122331, 0.1045376, 0.0935281,-0.4053343, 0.8609088, 0.7858895, 0.3494301,-0.0696798,-0.2984372,-0.3546624,-0.9876684, 0.3813638, 0.2771651,-0.0581781, 0.9428166,-0.4270687, 0.3729766,-0.3134464,-0.2962546,-0.0728234,-0.4350005, 0.2285198,-0.1821583, 0.5934514,-0.1861086, 0.7177708, 0.8598652,-0.3379412, 0.0797233, 0.3627556,-0.3581985,-0.2949737,-0.8196279, 0.2410551,-0.5227577,-0.4335551
